PUBLIC_ID,PC1,PC2,PC3,PC4,PC5,PC6,PC7,PC8,PC9,PC10,PC11,PC12,PC13,PC14,PC15,PC16,PC17,PC18,PC19,PC20,PC21,PC22,PC23,PC24,PC25,PC26,PC27,PC28,PC29,PC30,PC31,PC32,PC33,PC34,PC35,PC36,PC37,PC38,PC39,PC40
MMRF_2438,4.14119867796976,17.9047249851259,19.1289372227541,4.94315858022691,3.81000275477313,7.8062294725077,1.77060808108681,1.89628372413735,16.3557394032212,-7.30447861165573,2.34882642218449,-5.34398991493993,11.8166079048349,14.9506453225296,4.60329481829419,0.0489949624803886,0.498540479475811,-4.11654882173694,-1.94289408329759,15.262907407277,4.08349940017721,5.66659317516535,-6.15490867836425,-14.8406064653667,4.24017944155769,-4.27989170965797,-1.78309593924452,6.5994173746475,-6.48690720000913,2.61748756218698,5.74548938962976,3.85249034665018,-5.90673034997427,1.43122839890754,-5.90295263173912,-0.602489831407486,-0.322058793839109,0.146280170018555,-2.91478467909806,-0.234784052173995
MMRF_2562,17.2617490730377,4.04913661596241,-1.3109534876905,-5.27809174637539,14.1389089799891,5.78123796622617,14.2101123315635,-1.37609821686996,-15.4223189945451,-14.7540476970317,-15.0064620514981,-6.28145021839728,9.92205015141596,-5.45362004802039,11.4095176768956,1.38978802496736,6.91148814500918,0.115217262646259,-2.51122825928667,1.05970918774851,4.97395154639598,0.253757171450948,6.9130583669639,6.45455779860094,-0.768452818368306,2.09103532303232,-1.00219420736468,3.67364727506128,1.33006187373209,3.10257480462232,0.348900179703487,1.00880159697778,-1.45805151738662,-3.93370838535165,-1.21254466505257,-8.2462370342786,1.64671095958696,-5.52705410313389,-3.0262488801282,-2.43569790275311
MMRF_1797,11.7865364061862,0.0503414038825782,-21.5797035784618,-10.6891087104912,-27.5409085714687,-8.55372728062216,8.38827692476332,-24.7284914054052,-10.8900951362761,27.6541066288576,15.4554352897493,-21.4604167618673,-4.862695378048,5.03751386664949,7.53042416720176,-1.41196161445918,6.6533822405287,6.87301442827487,-3.2916185919403,-1.66486409594538,-1.20624055455852,-7.68481267012012,-2.68530464386878,-4.35233018253058,1.30747001240875,-0.424218446374375,5.25751923340773,-6.85771107792667,-10.1870293737669,11.0325173442141,-7.93931412081955,2.82834657457824,6.00711424333593,1.35918027421646,2.97113120121204,10.505160508899,12.3754856225921,3.88717095961298,3.01053761205018,6.04140164083441
MMRF_1861,-74.4993513442371,-3.74636733063728,12.0852392049044,28.7635279672781,9.84476318645148,10.5421019905012,1.8637314285749,-4.63595985451721,-26.2026616369356,-9.35166293050505,3.129867072048,-5.91564383841859,-5.46148114710481,-16.1775936905152,8.21491797886441,-5.4245621525981,-13.7887286180962,14.7155863214488,-10.9877375340795,5.30012576519685,-10.2308118097822,-11.1266858766333,-17.5069397638285,2.44432231176871,-0.163582847404855,3.94516684111716,2.61613634391045,1.48280851508246,0.467521130008853,-3.08558964875342,0.803522975877961,-10.344203971351,-2.56233478415015,13.1903725677326,-12.4441451102883,-1.97773584173756,-13.5594826792011,16.7971413461438,2.14858037745505,-9.35184035529179
MMRF_1823,-7.2316497489311,-12.6518720978412,-26.6830264659109,3.87582814222463,13.5485491717319,-13.7015366427055,8.82627365405531,12.0896980775925,10.6682341395981,2.99939040713512,2.18553551420505,11.4955873459328,0.576044086199846,-9.65663173282084,-8.81486582969189,-6.5971718782679,-16.0293015851226,-4.37461596241535,1.76212947952272,0.282072454912944,3.33235247147415,1.58100713396909,2.3394721266985,-4.60276536932958,3.82229656302302,-2.75513717979169,11.7254977340646,0.799082969360913,4.73091884706115,4.55649488731821,2.33946338283506,4.04994440718346,-3.71288646233419,-1.87835615097857,4.43261612432186,1.90697394124085,-4.09241780298792,-2.19169864753208,8.41621123535825,3.02596849669961
MMRF_2018,6.11381432223951,-4.36948393110432,27.0424857626105,-14.7623327104905,10.7811627374729,2.04917446099241,15.6436628066737,5.93116864647238,-0.887582143091666,-2.21535497627919,-9.79873360883173,-7.40722341109671,10.1085595198653,1.89837412876038,0.732828361207738,-5.12751815924003,7.79822099183539,-12.642649090523,-0.445278756589442,-2.50163908903471,8.84731746347757,2.30993185299803,1.16852990740739,-2.97164623267976,-5.88706421745186,2.71462070903087,-2.71505159029811,1.91061242567406,-3.9052264021027,5.52200204776311,-0.0882778452726915,-1.58499702836913,3.29995888715937,-0.897709402238618,-1.14510228764819,-1.28938110538628,0.288498389736827,-0.0165304298781786,0.539831092250732,-2.62256015248097
MMRF_2268,-138.524287548172,36.5482229869514,60.0292063748115,16.9155001237176,19.7953019200639,19.5960972704421,-31.4355637301578,-16.1973540225595,-38.516417445258,-6.43198161822315,15.8732734185279,1.97946181382338,4.01988498376656,-9.63944511944471,-3.28382471063814,-40.6888917560907,0.977178280997578,8.33101285841886,1.58641024460154,-1.40139810458729,-15.0370184503381,-1.51724389048264,-14.2951207992616,4.01966220705577,-7.61257733130384,-5.30499688766271,-4.89050906580639,-2.00010345245665,8.35650593207236,-1.34745199845224,0.0909356800732051,7.8862383408853,-1.70538541809575,-2.98649961013881,0.98273363043777,-3.8604121117319,-1.39113234762203,-17.0160458575342,1.60114892869717,8.47143709942331
MMRF_2694,-5.90281252828348,11.8440667176699,-32.4011879827024,-4.87638565138106,4.99409855625644,-27.9228070157183,19.871936403632,20.2046389648019,-11.0620643689951,-6.43909633208663,29.1480797101275,-9.13729990182594,-1.1337002325184,1.32490463287422,-10.5715301363754,-2.39919052922618,4.13918873295542,-1.49294892550277,-11.8590024107497,-1.58582087935364,12.1863229788557,10.5131537951801,-7.43294397426627,18.8035162595511,-4.03401633645861,2.92724609137548,9.99324084543018,-2.61871448145056,10.6043604103956,5.45148404553678,10.2350753038256,4.17385004996114,1.11335444583047,-3.40842784285391,5.8122003304533,9.45486042317007,10.9199317378303,7.94606780800402,-2.56280488579128,1.02778356611291
MMRF_1439,18.5037772738334,4.74148558744135,6.8690874409366,-5.48920828383963,-12.4929491596322,-11.3571369077419,-20.4606022949596,0.312398010683107,7.64698099144666,5.50958346603987,-0.0924924761142164,5.52633979864247,-10.2858677704064,5.63134211548102,12.2302634974227,-10.6563690180154,-9.3331141391763,3.6779737400778,-6.22515014255637,3.1696289029044,-5.04172301138449,19.631277521198,5.16308915459582,10.7103337448195,14.5551732320851,7.47482595435881,-16.4919379518136,9.33160985200128,3.63570060005591,-11.0664441229881,-8.89727537355581,-1.2398218434425,-2.07497890481326,0.0664571684071229,-3.76383922223824,12.3436681128896,-4.51409150497293,5.27126440806849,-6.84476703902705,1.61429089953654
MMRF_1822,-2.28083964946472,22.5826172966105,-52.0485956367748,-16.2226071547786,20.8225456369121,-16.4428434787022,2.65359962444441,15.2178347571373,-19.5158464645912,28.1038426552398,13.8456292312045,-12.2398070172619,-15.4233977870866,20.6886486351152,-3.17766999929783,-12.0081167303939,14.4908602033463,-4.13228524761656,-5.98799478039164,10.575225873318,9.46508083719235,-12.4919135663196,-7.69998990912743,-0.15165258734136,-5.96899521269195,-7.89616257317387,-11.0837599342515,-10.5376315777304,-18.7163749865033,-7.01336362696041,15.0715052334584,-4.62464821207026,-26.3107127018111,-15.0211927144142,3.9801748717987,13.0570829617035,1.89833849133484,-10.6469091084632,-7.43454110617597,3.84487873126875
MMRF_2574,19.1610367285626,17.8433555389214,-13.3209529749108,11.9691641332219,-8.83167510159874,13.4980987866023,12.0288218817929,-26.5654776665713,0.235647275762667,-0.539456853444416,5.2661782414408,-15.9511115988552,4.69398593840748,2.79923649967372,-8.55093291976045,1.8484417864675,-13.7102743479267,-12.823292725576,11.1891580593331,11.8247793824403,5.69899163140945,5.98397059007315,-0.169851364722192,2.17999695312333,10.1041671897437,13.1978801324569,3.24556729984105,-0.785399232519694,5.59454488544708,-5.82291045638533,-5.10664297584092,5.14673641692252,5.17264402470772,6.84292500624122,6.25574233400747,-13.663897845545,3.36706919419422,-4.4170362229873,2.11223678005334,-1.70321784690597
MMRF_2250,10.3939119206747,13.4501428900225,-16.4241709977438,1.00039155432242,19.4562466192069,-22.1341383910273,-10.774213651277,9.8887368435503,-2.23824152472049,-10.3787426351417,3.59491746699987,8.14863131558433,5.24797017641305,1.33331671370508,-10.710203792602,0.559104165035789,2.91710520784695,2.24283434256391,4.54830485078471,-1.96125317031988,-3.01499299649349,6.38182869475712,1.16000829581404,2.19988560559037,-0.761879199267873,2.55525201276647,-7.12964456422428,-0.125514132745996,1.35125692942717,5.05243135775912,4.32806738976139,-0.108455608000521,2.37061253876459,-5.38119483591598,-2.05798499930356,-1.63664777198034,-1.41002044170327,-0.0294059043968642,-0.893012503706734,-0.696844943144076
MMRF_1137,-3.88028161266292,-6.33027413051837,-13.6177564541536,-24.70356445022,-9.18325191977853,-13.0111669868365,4.14266684118946,-7.70948311183723,-11.6905986214791,13.9412848185664,1.92592844824459,-19.9384326256502,-5.50400787141547,8.88513870263848,-4.78398958198387,1.59806596854428,-0.264170561813732,8.906489884136,-6.28989466766561,-2.16181725567951,-0.830842012841755,-7.76590094486795,-4.28311418282671,7.31294870593642,-0.738396516421621,-1.73257689309457,0.713974877387332,10.616762770246,-4.37511339029746,-2.1293109832967,-1.2438200070078,-3.18681119139005,2.19754980675232,2.15233514231551,3.54386970906454,-0.836601387920337,5.84426426227168,8.17260310436387,3.96281235027225,2.26162201889515
MMRF_1597,15.5215287384547,-12.4572397802012,13.4611047748339,-8.09824621339223,4.40638975168008,5.55351286167425,16.2398558398493,3.14644731524323,-9.01810556093189,-1.46335269966097,-2.56678176933837,9.79084609496969,-4.24817757079909,-2.71172686989722,4.85658938305849,0.0606811242855389,1.04390041129545,1.35310242831065,-1.9928453428499,4.36540109915373,-6.31136083055378,-11.4707695279881,3.98951350804533,-2.44230464655364,3.34494958928577,11.8693423564716,0.483961494005709,-0.517164781842303,-1.40246559635291,3.79346769587569,2.49169838024258,-1.05504877969771,-1.5168810200502,0.623225159243971,7.01797831923725,1.59953821499722,-7.16454996030906,3.50233062914437,2.37099048367805,0.779412787643303
MMRF_1911,7.54820604990894,15.5905372642087,10.460412480082,-6.16944411632912,-10.0120029502253,-11.258149588858,-16.0300207596748,2.07139462962653,17.6578072846219,-11.1556994130471,-10.6513722966724,-1.94975667904916,-13.5884763532932,8.81486173198573,-3.24470150760196,-4.16856851471493,-15.0120329255846,6.03519003218332,1.07927074031081,-3.11808369491566,-7.28648202546463,2.9954797567428,1.26972414398452,1.41527197776978,12.9454257825298,-4.57841239113213,-2.42507611093303,-3.6955350934305,-0.256726077384021,-5.14565971357743,-0.811060900351868,2.60728509405785,5.26626177498414,2.17218293390028,4.92893612686544,-0.695168249309418,3.58356724458251,-1.57648059454987,-0.120165645153746,-1.70877157998791
MMRF_1835,2.46158169180642,-10.6750444700012,-6.32976120506982,-26.1684259383753,-32.2984258230361,-16.0743902172379,7.7742598090232,-9.18462447912059,-3.97988520049309,-13.8583314598929,0.393993942228358,0.192248649589335,8.95847693021907,-8.0080136740952,7.05778802036812,6.29976132126698,-0.636704222956185,-0.702941118362999,0.0475558275373246,-7.61946422771987,-6.41129427793282,-12.2111346840094,-3.45670175880736,-3.18934613402243,3.33267634781097,-2.87845196195938,9.12246322279808,3.9595540981876,-5.92631978232554,4.27274488323472,-5.83019903798397,1.4016205418387,-0.207067094253313,-7.23773819627618,0.867284099304567,6.2170017863505,5.80132795649475,1.76133558082402,7.23572875449681,0.955441005495534
MMRF_2700,11.8756118469678,-14.2605575218525,-7.15328989543794,2.47558714726099,13.205725284864,15.4118678586593,5.92721180222226,-23.7844787337007,-12.0509474782547,15.1609947946681,1.98612967372405,-8.89201467345089,3.46505249438903,-5.96109073040297,-8.65235642047204,10.2396909321452,-5.46211888078866,0.0968645987065205,-0.536904604958997,4.90507106290491,3.13629450317031,-1.91264043676025,2.28498653998191,6.48897816814455,0.312450035228765,0.351886536086869,0.107776577847302,2.58247836031438,0.733956087691249,-5.39807530562351,-0.349606984625292,-3.23276728508518,6.6843311313048,5.53896850022419,1.81644917127391,-3.45119798623126,-0.581253088659745,-0.549297678533037,0.671432084226644,2.50132918404686
MMRF_2760,20.6820117649677,15.8067821858942,8.71443937268169,15.3223938490717,-19.1618883021134,5.05326529684103,-14.7685692971733,-3.7358891938354,19.6184201788073,-5.19796220046594,-6.02322523344412,11.7247619385381,-10.6971357081183,1.28699521778317,-3.61173012152707,-16.0338245976048,-6.81011621318004,5.01658972829572,7.5539206478227,-1.16624142268369,11.6801648004491,9.82489633181637,-3.41294995104453,5.12695075921359,-4.81430097942128,-3.52058837482261,-7.93632716280068,6.86396043608688,-9.57936877013855,2.54982572519624,6.49955435990566,0.448374279892631,5.50549323100728,-10.2464229805735,5.5954381653802,-0.36401556412478,-0.251638163939989,-1.36194982958722,-1.29195255742874,-1.22262119168746
MMRF_1633,25.152825159692,-6.87630810014111,20.7765336879489,8.5944172273321,4.64528690997158,5.90479760458341,7.03254048289152,6.64788772114595,-4.41441916021701,-6.62135705931161,2.04987972082079,2.1637210427967,8.19791847509671,0.0291384747367,-2.29967610004982,5.58228625443456,-5.26249641919135,-9.98947350324227,2.36007217919777,1.30645949740088,-1.39723640328417,-8.24049246022793,-2.8291909575448,-1.91966507421702,3.79977933068222,7.58757127721801,2.36468166302708,-2.61949144205743,7.1144439142546,-4.72761642230176,-0.529207348599698,3.7814302732379,-7.66362759160975,0.964223783458285,4.1893340190056,11.0185883608238,-2.93634153066555,1.97087753281895,0.999778418581141,2.04779593588575
MMRF_1179,9.26757362039247,15.6986279098038,-14.700802680926,-10.5575068256055,15.6961459086253,-26.0743241044736,-2.13397335341475,22.0283481866978,-11.5633049972989,-7.27591938630021,13.4957129421541,-14.2980557414986,-3.46830259582571,6.65626111493215,-17.3669846131453,2.60816662264795,5.97360863036357,-1.02999290660268,-7.91170632070418,3.82568478538653,2.03532784683392,-8.51727675245821,3.51454650573621,1.61146512997799,4.54449270324371,2.02805139277452,-11.4845372666691,-7.62449740690401,-1.35316609732968,6.67397670980822,2.59529994921168,-1.61138458992467,-0.671544131205253,-2.5908543738385,-5.44840430842228,4.49939275919293,-3.8745556329338,-3.11621425322857,-11.4611598852946,-3.00512057320429
MMRF_2681,-10.636481097439,25.0257906596023,-36.1772440264911,-8.08477278958065,18.8796748267361,-29.056383576192,-3.34909982349269,14.7481029301492,-11.991248412863,-0.296197509317332,-13.8752407041315,7.01993612021618,6.43815645421216,11.3390483773379,3.31154098265899,4.29126163696327,-3.23189078852736,-10.0640033245295,-0.976866579549345,-1.85756117458433,-4.97289752329121,6.16534457799478,0.890518357950841,-7.1065264017736,2.22675949288574,-2.07561251251037,0.432528408008505,-5.9971098462114,4.68972824519942,-1.70172864042633,5.33524125775935,-0.301007936666412,-2.89749071820351,-4.71873859233176,-1.33714718337577,8.85589383686066,6.11882376284989,-6.92982376937258,-4.65917351673011,-1.03072743246301
MMRF_2731,13.0006663458228,-13.1250050347514,-13.8956020836034,8.34758351977158,7.22180854413969,14.4478229865265,11.1882140121085,-12.8582469549772,-0.22657805238027,8.51384007215095,-6.90960018995933,1.10362208825008,-6.11722049652484,10.815989916364,21.5514630625678,-10.7310177935812,-8.38082259874268,-8.71154192070592,-5.91046490487727,11.9144577596202,-4.73587725266944,5.0651765075048,-8.23002775964803,-2.72700426532965,-2.25782261591091,-3.74047841386988,-0.19544730476514,-0.203302120433219,-3.54700751623233,1.60888042853722,2.28249673794721,6.33959546441185,1.17034997249361,-11.8635767547662,6.16953335126594,-5.34168860107988,6.22457173461727,-4.31639438425062,-0.940660582070391,-4.47658315679603
MMRF_2412,18.2926211873069,5.17736041654321,8.64093723145422,3.22644036580127,9.4772111702601,9.06722550649699,4.83990543423921,-6.70149812035151,8.83337705659853,-19.5183431755962,-1.77603487931039,1.8093720497135,-6.879883793651,13.7876628269004,7.35081843154149,-4.55341352602201,5.91533119469061,9.47818772473986,-1.91906003822357,0.24382174814504,1.57530965734472,-7.22415986026396,2.63308864123691,-1.93342649312932,-14.402031758127,-1.96250127693402,-1.70761370806735,4.33189067663871,-2.10424282056091,3.89416586702267,1.94177227889078,5.06135775391096,-4.84325027120437,0.909107014472559,3.55819878590616,-6.79633309268353,-3.69236456913419,10.9947841907235,6.41544190878328,-2.5592625551183
MMRF_1211,-21.2896585424197,3.10931160992002,4.01592672667675,-19.5309432516368,4.03913846987074,-6.39768233853865,-18.276377288664,-4.49234279845124,9.10612340502282,-2.883392719682,-4.45235551686007,-1.8201737357959,-11.4438835717161,-9.83713854318345,-2.55360175420272,-4.9025628290067,-14.1472090346877,6.50532821333767,-5.06231930759439,-1.31116491163886,9.67726046417088,-2.31991385462294,-5.92142673901873,1.48892452547438,-6.1530810320641,1.30685300696847,-3.17158575147027,-1.11135400289399,6.57919810367556,7.29376684461614,4.28329010304559,-2.35862359633294,-7.06393731916484,6.51629337230446,6.45387061640898,-5.41317216590984,3.61413516138919,0.605139321136294,-1.60540034987086,-0.131771469826663
MMRF_1700,8.29214109355741,20.2328673881697,9.83919968446103,36.6572383180739,-11.046860932717,-7.86004693159656,15.8718914779952,11.4230773745308,18.619967343753,4.79234438365518,-14.1157979726213,-7.43568922891034,3.81054924619011,-22.4173520460806,-8.01060013761977,19.108789573296,2.92681678622413,3.122415187056,-0.0530128537107299,3.27465850757016,-18.4239046706062,-7.3879906833441,2.17806764410352,-16.2293416133488,1.96839714117603,-10.9610131744754,2.50582602531492,-10.4069346781749,13.0499626191022,12.0853257811869,-16.2840241590268,-8.77941000338475,-7.95781118069116,6.08331849371271,-1.86725690280581,6.30837460911636,13.3122326326303,-7.80245971311954,-0.065271140605339,9.10736892713067
MMRF_2013,-12.6581937230341,-6.55078172599408,19.7333059650823,12.0803516030486,16.4612990797249,4.13899403272571,-14.630770663811,-9.58726277758533,-9.9859702760698,-7.94173997043318,13.1944661452785,2.50364048171434,-3.22695321561659,-1.83518577852555,-4.86125724552214,0.012419636997587,-1.79025555527822,8.6392901806128,0.669234173473531,2.27578136833343,-13.5622451527072,-3.00509666759162,-2.79894634317337,-4.04722278638857,-9.58238985922893,2.92183913001975,-1.08285040265147,1.65923235006768,-0.217730073856784,-1.57247557518183,3.59194944646119,1.78240519478908,5.98122285969508,3.96411036953939,2.7766987371636,1.83511751004001,0.246310773653577,-1.45261078646396,3.86767576643357,-2.3453169620373
MMRF_2781,3.42177073996561,-28.1035749805205,-19.1859508513988,4.09220582027366,-21.4765186576206,4.46888029002688,-6.44504152192222,-7.81503400423197,-3.03748987238108,-0.372061373280484,-0.488512660145885,9.81850953010785,11.4577847792397,8.21089917051987,-1.49632949382241,-5.7457771403971,-3.60555658976469,-1.07243362215287,2.27071137475204,5.57383386992709,3.86092151766822,8.04634135941138,-6.89537011510504,4.19357263557847,-3.85072854191164,-0.345726138086396,1.75940439411768,-1.70542211975058,1.72055463803135,2.3129294213935,1.71836368564101,1.22378897387443,6.84140448492624,-10.3824306781814,-3.96122980926725,3.48846250812996,-2.91230185978001,4.50870777406157,-2.4260798347469,6.27266679058137
MMRF_1808,-25.1551888013084,-16.1097733962596,28.5389288655224,-23.1332406291136,3.64414668666684,-5.16278390036172,16.4981795993813,9.19604409593646,19.2055296319466,29.0848560878599,-6.19090684562198,2.06509662472456,12.3708025327898,-2.84924903168355,4.86075018244296,-2.94407792938091,-0.571522702010991,1.68774903372019,2.64717749383044,3.54969784070599,1.77735581388564,-4.52307393184522,1.02554992149021,4.67265062242226,2.3103668675888,0.772557956764848,0.0741513186872377,1.63458608262015,1.01746791897557,5.48294359389031,3.25508738406484,-6.41447956182379,1.36451250619331,0.631065874609845,3.23184946422309,-7.06290312972036,-4.89678175026635,-0.0541121391699478,-0.602326924164612,3.61335917309428
MMRF_1309,7.97056874645727,0.853357515760528,0.930758774308785,-10.0855768682188,14.9462461205743,8.49355479952338,8.20339333753456,-19.2823737856046,-3.79380308779021,5.0189751695638,8.96320848626394,-6.84938541084528,-2.5789869396424,-4.40207550370705,0.306283920822817,-1.20221271881629,4.81623569250265,-2.94254139263657,-7.68316147270889,1.99866916190429,-3.81987407792094,3.38781088934415,-5.48530082500375,-11.7698750861194,-3.21147803916698,4.7641796818555,-4.73848875792293,2.01792045002711,3.72043496973827,3.68616614143556,0.986091277982833,4.07868522056392,1.84874440914687,6.70644647523935,-3.89409672156693,7.58690272258241,4.75355259712575,2.31287061666337,2.88641925002079,-1.19909222177233
MMRF_2815,-23.1758224036804,-19.7189169446376,-38.3944355758996,4.96253033910381,7.39565753947178,-24.3368973584102,2.95918913234423,7.53347438126597,1.22024251236417,-6.54346109580476,-2.93030237794741,-1.92744485038933,5.52561127466378,-14.4299245011246,1.42156373724468,-3.80931919738524,-1.00692011856202,-8.94988017244916,-5.3449499685333,-6.42827039166554,-7.60740209947985,9.72905003457746,0.539629310299451,1.49589883919228,-5.11669109585693,1.81712995045689,-5.45208259319429,-0.128892543802812,4.52616931958044,5.75439953368604,9.83804283732178,-1.75778499549266,0.239781714792079,3.47271453203143,-4.04812308084733,0.80540210951096,-1.31055401584724,-1.30741906758152,-6.44988966609521,3.37752657455465
MMRF_2377,18.2158325338283,3.80704784280889,2.22467309204387,-7.68986133015138,11.4020135538965,21.5785002797954,3.40976438397883,-27.5708361623525,-0.325947873207001,-0.259860582424256,-12.9225420748618,9.65161289479098,-0.346177192025469,3.27394864482698,-19.6220919191086,1.1327854450701,0.754940356787394,10.1474145879174,10.6265771529056,-25.5577314144317,6.05145745961152,-7.92196339114652,0.614137558914811,0.309186039986171,-7.11840917222376,-4.98648013931666,-13.8543214849534,-2.75720869141701,-0.385677164094572,2.07508053632723,1.08713029416328,-8.22403917373906,-4.03785451351273,-1.20528587760055,-0.885397930623754,3.71715395865088,-0.419232131393776,8.40169654694695,7.25057875703753,5.47345716397228
MMRF_1033,16.4497508315138,-12.6556301856148,25.2086532786072,-0.851311768154409,7.95881492846349,-0.750918371468901,-8.00289655806205,7.29830532704317,2.81860937452106,-2.52730286966655,7.44513556985643,4.82148850111296,3.18828877957965,-2.42888983420747,2.35021546873732,-0.0328480941158057,-7.25135774510453,-2.8276078611098,-3.21832807056756,-3.0901768247173,-0.409992245461759,-11.0889733785095,3.45678600888322,2.91784229697686,-1.22890168746458,3.50921546737018,-2.96225917398664,1.114026612452,7.40175331940629,0.613373593913799,5.65121086893961,0.887233600357441,0.411186551211912,4.71056914139464,0.119481298735634,3.90733192406309,-0.121517011018249,-0.147869027968423,2.80755541534882,2.21901343052839
MMRF_1862,-5.69028795167563,-25.6922988838124,-4.4311128694481,-5.10449376899435,-15.5786686942925,-1.65795261227929,-20.7419245320601,-4.35375871148236,-6.97211720272655,-6.93255528560501,-2.80612816910131,1.7648978165997,9.55573388387119,-5.81505624061359,-0.52191845167128,-7.36070970981646,1.87318492062761,-5.93552027840016,5.12806054062641,5.52867067070775,-3.60333171805134,-4.67548772216889,-8.91362152244006,7.74109335942585,-8.20835639497034,1.26379947426512,8.71733148096437,-1.14978392634708,7.18888260989254,-2.64037600127724,-3.35340404728536,-7.76089644864007,-4.90158762872153,-4.46802469977843,-4.10043482756848,4.91761968221452,-4.25203943122165,8.12304003446513,3.83674020608761,-9.39595192871041
MMRF_1361,14.76184168152,35.2745819991968,-31.227256396534,12.2037704677551,4.36045791054239,-21.1064252372353,7.3323448773424,-3.87929895485542,10.2023978159262,0.895779752262973,14.1303702085099,-4.03598639077492,-2.41855299669306,-7.35861686399125,5.47359882121054,-6.2071071564163,-13.6195696880058,-4.33457357804545,20.5863360146137,-2.28640342112544,-7.44623525280665,-15.2234278346384,-0.00423430268872647,6.23434097033481,5.73312348526184,-0.985144794456403,5.42195029373833,-3.67805773282651,5.51842171894431,-7.28935309165247,-10.1195115526511,1.45045872771188,6.87100330150334,-2.60479970055563,2.76808218478387,-10.2709480434168,-0.611236169314842,4.12932545570363,11.3782974796259,-7.50003930702028
MMRF_2380,-6.66456138442412,9.4269773553237,-18.963179020438,-35.6673132306609,-13.107415144563,45.1285690939892,-1.28034967011767,35.6533000824039,0.178421020863566,-7.92670889413903,32.6427482583894,-17.2408558082245,-21.1751963912687,17.7571584936743,-20.1284589903493,-0.732425971277188,4.3661826815312,-6.39891123616657,-8.94603865825202,10.8243948690056,12.148472339812,-7.69615664429779,5.77737236370887,5.38969526977361,-9.3904822842091,-13.4135190903586,6.45083871845706,5.31309578495473,26.5006412694898,3.32589857763491,-5.66960549897049,-13.2588171094463,-2.75575832285642,-1.52560227579429,-1.51852845061671,0.498778533786713,12.625276557648,-5.21409169299039,9.56234102997981,-0.53449090497104
MMRF_1130,10.4193525291231,-1.78258333163401,16.0026143306595,0.0420491665267892,15.9620168510878,6.42132369022354,0.0684178562284231,-1.27934299197416,-10.483786693331,-1.85994779566448,2.88994103880004,1.63365810188341,-0.018669842604464,6.64922946311274,8.74862681095725,-9.40152745843002,0.947093897080384,-4.17973230748449,-14.70456868818,1.49123732713928,-8.77898715581484,-7.93065999103591,5.4249174078793,0.33523840767663,-2.8161176038394,0.155251346682214,-5.76718814086631,-3.29389403365373,-2.28922138193551,-2.44257605697529,-3.58342226965051,6.93414737075841,0.0399071921185807,1.66565386734999,-3.8608060244681,0.74962527995223,-2.36359505423371,11.833228222876,-4.33547363442535,-2.65890905136825
MMRF_2174,-1.87248933847841,6.21971144553276,-13.4910906203631,-19.8270839031707,-1.09450387067372,44.7722440294841,-12.4363286029127,16.66787627879,-7.75351225321916,-4.33276430436514,-0.446168531748698,12.3301133899579,12.9487633980966,-7.42753833871234,-2.40513598154105,5.11075153012596,13.6240662660633,1.50085773453301,5.72443100757901,7.95968900870455,-11.2147908911563,10.3661180860814,-5.32764238316048,8.73650637874585,1.44279174187014,-0.979512721977323,7.75347216244912,9.01986217707966,-1.90865960770953,2.04326185286033,-1.68776261741004,4.65952589555317,0.283592809971272,8.65270024694036,-3.76929448997893,0.0966573537229374,-3.2815469525352,3.04324838651605,3.94325581838571,-7.70542509843906
MMRF_1710,-28.5475516259882,10.2218321414336,13.6983112858104,-32.7250761711145,-3.28865328947165,-9.03105748589914,17.231200683315,-2.71725729677511,34.1741861846651,2.00537631058663,-8.79641380143111,0.341276204533065,9.81642048994372,9.08787941979954,2.23471310727217,-8.64112976171899,-8.20085446894864,-3.0800741392481,5.05322207697923,-3.70256097452901,7.81782425626817,-1.63585249452588,-6.42659540939952,-5.39186380883788,1.60869734442245,-2.44027065209006,4.26278520064639,2.94935459088784,-7.642076570749,-3.83650157912869,-3.57618524988591,-5.21670666982814,1.21063688879782,-3.50768270714168,-0.7172795710264,1.12574721318814,2.30378804166523,-3.66805790037226,-3.95178068369677,-2.21367141616189
MMRF_2183,21.0082545248256,-4.84143861169884,23.4216211965894,6.71213783746248,3.91349229700359,0.741424033778779,-21.4971505397413,-0.919382047451565,0.983722667386547,4.4356197538828,3.6638988450641,3.59851121794488,4.06516280219566,12.081523162186,-11.0591660434415,-0.590676053345234,7.40833000692775,2.50504277495208,11.9738008753524,-4.53785493645441,-1.47727424449437,8.05012663873114,1.07724307482708,4.4227734575436,-7.30494779378546,-7.98482367561524,-0.656886466465299,1.19621504987909,1.01024529071733,-1.64861320533499,2.10648965207045,1.48187639929727,1.33346993713671,-5.36590042645352,-2.82932517430876,-4.37781848776036,-2.05619461817918,-1.54580779403441,2.00635339489909,0.580276822537919
MMRF_1888,27.9376170297957,5.09143583295636,0.371350199961067,-4.40158236644813,5.36200163993927,10.9841040684477,-10.3448492930997,-20.3707663906055,-0.999334472132159,-5.32159285981129,-1.21187775655699,-1.79862202628039,-1.77653852999977,3.7548982481885,-5.75495925327683,2.87541826714012,-4.47523525062018,-17.6033092397974,-13.5959753903345,-3.34511261217557,8.53280994130077,11.610569849387,-7.94535449865129,-6.34862075115449,0.000729324674590039,3.60517176737606,-2.33696861118554,0.929821528193095,5.89862451176358,7.16724827323677,-5.61467223266086,-6.56378940149187,1.19581055513844,-6.85792595016498,-3.11659522092072,5.25843517818169,-5.10790714146815,-2.5752344149995,2.60924879897297,-6.0781996293508
MMRF_2836,-49.204767662052,-6.43999940063259,-5.58633561402116,40.303858443876,-34.0870455762785,11.9553133538771,-5.84452122351687,-23.8404647301127,-3.63888064104258,2.52983407901965,4.47981188251147,14.8375604145211,10.5789025081407,10.1599247282228,-18.2967150474647,-23.3703757745909,19.4507210800733,3.43269479192888,11.3696529351792,-17.1008358981058,-2.21440048167656,1.87407736495492,5.20274111698621,7.98929754978198,-7.07685269819439,8.20726589032006,1.47845378796499,2.46546219445629,1.2115708765868,-2.92572951974923,-18.912133075593,-23.8388042239789,-14.3342221704363,3.22355947473237,24.1313428780406,-2.21992869726908,6.07726905768744,-7.81251426495355,-7.09777029457582,22.656250040268
MMRF_1355,3.9215169339288,-5.5299866286662,-14.0549586479691,2.80305560579185,23.155832948744,6.12289706695034,3.78309844764277,-18.0365706052417,8.48221109129873,4.79536512060418,-0.268688803233739,-10.9457782997533,6.82268284959137,0.0660386340224561,4.89468049032735,11.1366562865076,-2.76113299332673,6.47772512179276,-4.58323714068571,-0.39232031995908,-7.42890360847786,-6.57854848924618,5.34286774840486,3.35496227487491,-4.56107673830631,2.74430089332832,3.80627701700726,-3.98166725638,-9.05233807901854,-17.3007937144516,0.288575524964737,-5.0180720659341,0.375287238382657,0.354594447043976,10.6153842811762,2.62641839345785,4.09147536901552,-2.00981160981231,2.75102620825873,-2.54511481143575
MMRF_1307,-23.5547222816207,4.84290200461907,-9.37649356742607,-38.2817034338823,-4.41602769836566,51.8464574288613,11.2213602802692,31.9337272367721,19.7413779219389,3.07899260948486,1.85438549127084,-3.95783621374572,4.92757768426597,1.31444066281128,-1.05305206938693,3.49709251858498,0.87355209350286,-2.20982154834494,0.186142539964878,-4.33010908409075,-15.8448412460936,18.3814643358571,-2.00744887702597,24.7466202217569,12.6936843904525,-0.241610267237414,-15.6869484115828,23.3750989343835,14.4630837840255,-22.0100533651048,-29.4003477972193,15.8392459841535,-10.3415348905734,8.86234779374892,-4.42002830136206,18.9597234848706,6.78173224328532,4.57924492247087,7.60954604793598,-6.95025946321016
MMRF_2076,13.5948182919602,3.3073067965071,-5.56638776972896,-22.3042064000775,-2.29680107310598,43.7163589828274,0.346956289304651,27.590697117292,-7.13558996091845,-6.17383412440266,7.42564062112649,6.46486861099507,3.34368699306509,-5.53152353296059,3.0395663774851,7.03195968533348,5.68487475680686,-14.7652949459456,-6.66386806466842,3.37363875471146,0.784042847978388,16.3791844290433,6.03685015323841,-1.5437634245837,2.07112980921049,-0.339093335388664,3.57621616493621,-1.35235991698409,5.47549774849362,4.69692746047244,1.75698738166654,-5.12596688395749,8.66086639112784,0.158563317264672,-1.65531058260525,-2.10437153509513,4.13974528533209,1.32649091413819,-1.33324476776776,-0.316449915164103
MMRF_2251,12.9191081133391,10.4093185651221,-6.15118909954424,-4.70024802604483,1.27519889186169,-3.99973612604285,-44.6037640971339,-2.57040273483757,-10.1915219262828,7.03709326111737,-26.2635257063983,5.06200190563857,3.04136867070437,13.6229499791271,-5.43256782386381,2.32484648481511,-0.761561853556755,-8.90940264575546,-2.86302860388209,7.24497348763296,8.08670324632465,3.65640915130215,-8.45799736632551,6.21841016430892,-4.3072454939596,0.0904428102752231,2.40135429699341,-7.21038582743283,11.5662668314743,6.21903889957389,-9.96398512521169,-1.84614788526173,3.66214933874882,6.4593358969135,-0.00677482258730976,-3.70785046640462,-8.74837152093694,-1.00433638815269,3.82127369149101,4.42083394748846
MMRF_2005,7.02957865085001,-4.48671797900147,1.14921203214072,-25.336823875614,-28.5399408290747,-18.73221524285,-1.71880265301641,-1.35735166498297,0.779379793697005,1.00950293016213,16.2054908246943,5.89487094082257,2.56318927605512,-4.07685610555741,0.919258740276028,3.00508423980405,2.48780777115831,7.88651724857494,-11.5202792486333,-3.61470668947285,-3.47217672861242,-9.67870980173874,-5.21844850951329,-1.92736783032014,8.20794580859401,1.49656870094983,-0.576944536510689,-8.65379386542953,-6.5620810827883,1.35038865156235,2.30673928308148,-3.4889691873234,-0.624885580109045,-9.91097164793802,-6.19886739779306,7.64032602508929,1.074919997041,-4.58048791344549,-3.80588412134796,-0.956667528239349
MMRF_2814,6.35128930244649,1.95997268696642,-15.9801279577196,3.29599358264312,6.26055102641083,7.98555981094475,8.38592877880857,-14.2703842886764,-14.0796310415492,-2.17559593845164,-19.3256170571403,0.0594214621853746,7.66325893008532,-0.900000866393259,-5.53407904150015,14.2783868754709,-1.61621443010182,13.9477533446622,-16.0102454475616,-13.9741443828857,-0.0631741820761221,18.0977992762184,10.9150167536449,-3.75851663303409,4.5274946625172,-6.09633836172176,5.41560521810423,0.231601915453899,2.40396120122101,-7.43419755554323,4.07088874882627,5.48294013266707,-3.63542690971093,-16.9795047978699,4.21153540886895,-6.4207341571731,2.72874726023508,-10.0351576736494,-7.22843971767542,-0.782519014848224
MMRF_1589,6.58043699644076,-4.14681285287689,2.32857340562753,-24.2376334977489,-3.19354222594739,-1.76596028489624,4.25546906048618,-1.99705391656536,-0.316671243059692,-9.66350851648989,-5.29263895665456,0.142302998053301,-8.74190898616146,-3.00692141292991,-6.78210396623129,-18.628272925707,-5.0393005121488,-9.24168746143147,9.11506686317354,10.318165410523,7.28219057449701,2.92454537921212,-1.53227004713727,3.55623823016305,4.34738795637327,-0.174117156534395,0.0744616566475335,0.340104077178264,-1.84795616936898,-4.50455998600675,-2.43165414596658,1.15559975690314,4.93311364801191,2.47591976867766,-0.9612969488586,-1.75814231500355,0.944286202510813,-0.691737312668811,-8.74581596627896,-5.7193213573106
MMRF_2473,-4.37404438359997,7.61402042691106,-21.2847807969183,-1.69418658846473,-0.807688247340104,6.3493119290353,18.6151815367108,-24.4391027338206,12.3115517454619,0.617421479724878,19.153490900344,-22.334008908485,-10.1948081422441,10.7806366606906,-1.77223079237372,8.56139161850703,-8.04424263938506,12.2492765967972,-4.70066755275215,11.0510742332806,12.9271215392265,-15.9071184021053,-0.633588117462189,7.02852670532682,12.967349701235,2.73290656769829,11.6015543854118,0.268074233851685,6.51982697777637,-0.115348324749996,3.82087673082667,-1.60036346225919,4.55243994762841,10.3820848145144,-2.94261542820469,1.59448277392626,5.05117566445309,-17.6702104466392,-4.71930299496161,5.91887004513172
MMRF_1099,22.4697121690642,-10.4462929236117,7.61208373535749,11.7567782412472,3.40872706524436,4.09201872756872,6.46000022876061,11.0962155188322,-16.806772377294,2.48392277499078,3.23774154606943,-0.0118098117824717,5.46038312060329,4.21435844905699,4.04042875478121,6.22946563278553,-2.14848220955293,10.8807423982761,2.05586538438495,-2.27864870563115,0.787670007872375,-1.05353231940675,-5.65683567145359,7.34120596165705,1.53898097457178,5.00047518407363,-9.20931112969426,0.695330522841684,-4.25317034628014,-0.523247380190955,-0.745971684214222,3.83205260491844,6.17193214038602,-4.24822856730249,4.4351183581332,-4.53881409248184,0.419316685544565,7.30768993467808,1.54463115048977,-0.968687950372959
MMRF_2770,7.08907743703645,-3.7854031875596,-8.47718810157017,25.6262930262899,1.96829754044555,20.5389779673469,1.00839257775022,-19.937581780601,2.57641020417468,2.47465997659824,7.21875633954303,-3.72087026773294,4.40924661692926,-0.597799557537905,2.64133049060898,5.87930075241106,-5.9314985873684,0.988545431770559,-3.76019049443088,2.36541172071124,2.91115947230592,8.90002938204575,-15.235598032067,4.04718399634987,1.62915104324878,9.4701305218308,13.630029493103,-3.68269940785351,-4.07992076751564,-7.17052592863187,-0.284480595501331,-6.20417355276153,6.09476162991079,-4.75058757245885,7.53234045487421,9.91839624868957,-3.9102662038442,-0.694130810737536,-1.88150352451323,-2.85001742598941
MMRF_1328,7.46912162415456,22.9516845524372,-13.6146465020243,-7.09376490211905,-33.8374005901593,31.1559316821817,-5.95091939673463,22.3997416912438,-4.60985946010445,2.53740367984643,13.5581580616465,11.4109713047464,6.25224251272664,13.2937420138124,-3.36587937179419,7.28735247444446,-12.7619175898393,-4.80899622404475,2.65360756448394,-16.195807214163,2.15958253012048,4.07526602267586,9.41116970961493,5.34532815957917,5.70507842486707,8.35933927466418,1.5529733221675,12.2027156333786,-2.73077583172278,7.06325298781905,-13.6853352905942,5.90225161417194,-1.75711471616016,2.04799254454832,1.67101931105415,-7.37804703411295,-0.514838919450896,-4.2001887315907,-4.30607640455853,3.27411585528526
MMRF_1586,3.79819257276199,13.3986939256761,-25.8145311107459,-36.8779788733109,-11.8535218092662,46.5027515401841,-3.35411062527733,20.8225360482954,1.70282501331919,-10.4261626546334,26.8604535899472,-14.5532074221218,-13.5440853664765,7.93805303979017,-19.3708835798384,5.35440645724635,5.04690858687454,1.48862002235352,-5.22186009316135,1.92757172011244,9.26686822096825,-2.53283302963852,8.40380081158177,12.2695660462139,1.31845681837637,-7.01448480035052,-4.15952818591167,-3.39365217517667,2.89347285886133,5.7493956846732,3.59597008804467,-8.01450635562372,1.40496844410385,4.65452241159144,-3.82021040264136,-0.901765512098028,5.7420237318498,0.0322370887366335,1.27049398005995,5.40108487194589
MMRF_2364,4.36963543303513,-12.9549797650041,13.7662068694896,1.75153213419271,12.1350489687027,4.32822110469091,-5.48395441401871,-1.9228377010449,-13.474190777692,-5.8735119290713,-0.106362143670717,2.63356858672919,1.16805113329937,-4.5499046713266,-12.3848912975417,-0.804438035239258,-6.81982593938414,-4.00492328985347,5.26605386801959,2.30106165005834,0.736382460360822,-2.84665870103692,9.71868936085781,-1.41932485608548,-6.20042380819834,-6.28097571879707,4.18064629594554,4.67862525592551,2.43140349436489,-4.74084131497166,-4.98201787304621,-1.78468723104412,-2.02697988289348,6.72395906278534,-0.326082099917324,2.04309442115623,-6.44154493624682,-1.42127891757942,-2.20070378660984,1.62188866655999
MMRF_1311,3.67512071673077,-7.02385873439804,-8.98703182528549,-8.02172815715795,-28.5123007056004,-21.3044074736765,-9.75236669040599,-7.43816339929845,-4.16957699971341,9.34168340838414,-3.66779500167351,-14.6206501059584,-0.981665783835478,-3.34529712029316,9.398673706367,4.69015181732214,-3.00383578508127,6.97571485692064,7.64256385334287,-9.4473396030339,-6.29249861450211,8.39184016458638,1.96204509516308,8.59814070040967,7.54335728776061,0.381331812573041,-4.21567508170196,11.2396687224467,-0.595897792285978,-3.50178132632293,-13.9663543040793,4.79174209302686,1.97622417984122,-0.766116603266773,1.00686646587527,2.91580466333455,3.39534485787876,3.09989186312796,3.30148238483118,3.56833829808746
MMRF_2643,-10.1632723425606,-35.9821959354663,-27.3519926660071,8.50918686176673,-40.6221643084089,-11.8138956282461,16.4010577559557,-3.37817355962404,-0.814150396347294,-6.79055291707392,11.400132430066,-22.3367532420976,0.474036133360237,6.40249743160386,-6.08499446104955,-5.81261842457209,11.8153301543103,1.46006761924391,-3.93276790234614,0.000812055550071585,2.67715909315377,-16.4332979510314,-2.48439433959078,3.20051447418433,3.52814833780782,-7.91771618073713,-7.87519648440835,3.13367114832358,-5.53426110062472,9.556433737872,-11.2873113452095,-0.236415360309815,-2.19098936885559,2.87358267874135,-0.795233535770884,-1.77462956498676,-4.75600922427673,-0.80696413880418,4.52159038503494,-0.377446017250736
MMRF_2535,-44.5517427178161,22.326579322209,4.69485490491467,9.50480712047997,3.27219211316306,-3.95694438591102,-44.5566507163354,-9.46355598269865,-20.7679092570681,8.59006417267175,-16.9539861299315,3.7241526326614,-15.9890110674564,4.18813668504121,11.328529969474,9.08645567426014,10.2707866416529,11.757304774718,-4.81879843338639,3.12926326171925,15.6959929554653,10.73774109528,12.9827386965376,7.09096978161995,-3.92248407452965,-0.125041326609406,-0.282825844475988,-2.79477672110741,-2.58869305620565,-9.78827455187247,-13.9454610742469,14.8107868354115,-2.56849607473018,3.10158100892737,4.19148590697286,7.26305938122845,-9.28949273201952,0.48141379334248,-4.25286006077945,-5.56339434580863
MMRF_1722,5.17654262493758,24.3603097322204,-1.96788450781459,-11.5540964822573,-11.4785685667168,-14.2601214420194,-34.2214254276656,0.274071468170702,12.79818583413,14.8581186975766,-17.7112090050353,3.49413382135523,-17.2440880560417,-0.188400194521994,-1.39999775759758,-1.76310945148757,-3.64423203917605,5.73389252538778,-6.87663222559146,-3.5765306614091,0.246668149300811,2.26677169180303,0.912967412879338,-0.0748582636289418,11.6480248331224,1.44746204407883,8.156826342712,-19.5244112856405,1.11702695816649,6.91796539267116,-11.0004222763912,3.26250881622434,1.48658131271853,4.04036918221947,-3.56563438804819,-7.46044214848869,-4.08639492188274,1.71113539543964,0.88170485766297,4.1005953833105
MMRF_1537,-111.19343501605,23.9561066023267,36.5434220016209,6.37957475697221,10.8923022432649,-9.31589386747212,4.10515085256811,-13.5300805776587,4.74970545235038,23.7806622611064,3.68367169454467,18.9012591249168,-50.5565670502164,2.55047457183534,3.26373590539634,45.4600462518089,9.56709526695151,-32.0403681462282,22.9181748237533,3.02592808114174,17.9161819823966,-11.3557025899101,11.019768840119,2.29914535966916,21.4352767171902,1.72353831444395,-27.1601975196915,-7.83493827740067,3.35278783662506,6.20635337692648,3.54269726876064,13.6832693666317,2.06962487719965,-22.8818398847063,-6.22253370690427,-7.4910627296454,9.51418036865858,5.01309600210141,8.87561503939742,-3.00270681591412
MMRF_1284,-38.4606298108043,-7.39935482100879,38.3231593948789,-17.7278481974026,10.4718603767075,-5.22083850665446,11.8318730287618,9.55697198999017,11.3357461424489,31.899698675279,2.39559822917606,-2.9072582797233,14.9030233248852,3.06037292586567,-1.76193826738212,-13.5064879505009,-1.50127985579843,4.25412461878678,-1.52957375447032,-5.07695378908772,-0.850185175112082,-0.141889194209226,2.75422856836104,7.66320685065562,-1.7080398425152,-0.50476968539157,-2.22131281882614,6.58791101118908,-5.82853071033372,4.17691660021003,-1.77121742231794,3.43590366531056,11.8660224032664,0.933843772801811,2.07332011962026,-5.54488519393062,-9.8646942708933,-10.8050390352234,-4.91353145946476,1.42012780298608
MMRF_1266,10.7980531976604,5.81587303894415,-22.8751939988061,-6.9637408456143,18.5141474987535,-21.034022013219,-4.92000301464048,-4.67654549530646,-1.8203260640432,-2.52154772407862,1.93539835710115,-0.630063756770762,4.62624928712039,-7.97746809014989,-1.84011703014425,1.64492574484313,-3.09673321128951,-6.20771519962493,7.39374325865541,-6.93351320448873,-6.716154056288,3.24687215319003,5.18389069766329,0.845097936816284,-5.68869570185539,0.713580358328285,-10.4780401040275,3.14869637665467,-1.02662095636164,4.37949491464574,-6.30092655196032,-4.9354561464485,-1.66548298436428,-1.95889838385132,-5.42583115580339,1.61097651887443,2.41608940586405,4.35995047253393,-2.06420118947773,-0.0915794685277182
MMRF_2572,25.7533001743996,-5.3400327694229,10.7606556769067,10.4235817603024,8.79073802756112,-8.26271100222631,-24.2019148677041,-5.65900295152533,7.69276851445238,-7.46316627811259,7.3231452565843,-2.32515455862138,-4.07596355225413,3.35811592174394,-0.292002140828476,13.2723404528548,-3.05150651109654,4.6524701421174,-1.24259546674427,3.15240300963622,-3.62186702964516,3.32208183507447,2.38188121090992,-4.09366867536766,-6.60392744881476,-2.33269765198864,-2.10025323935015,1.71224228130959,4.44886291678084,0.949686746439788,-5.29032530469637,-5.60784719102402,4.44284336816802,-0.0316960554300697,-5.99373474431891,-3.47687811446149,3.98994088591597,-1.6565317275231,3.22437045381605,-3.58283285025919
MMRF_2554,16.530103705614,-1.03943806558023,6.98290863486293,14.9591225729005,5.11295385020344,0.138118659479232,11.8668174282849,2.476017156424,-9.31736309943976,0.561497209933297,6.18463609683956,0.858778806360211,-2.41259598308491,5.4463731082978,-4.45211734441725,10.5613371897282,-2.88246504881722,11.3321577944024,9.5315822245661,-11.1948044037257,3.74368208881674,-13.4425608692342,-4.35842281707928,7.35564559595509,-1.69851817120145,-1.04049969773486,-11.3430241191135,-0.879536100139006,-3.86805977759448,-5.02182174042588,-1.38016108366127,-1.05562414105586,2.45071654001073,8.33566494888972,0.488017140628958,3.62541831855524,1.3290657517987,-2.59229232276962,-2.88477882214318,-0.777705907656205
MMRF_1432,1.11506240929775,33.533951292821,-27.7233082940246,10.8549176500626,14.0479858704198,-9.94955430350908,-1.22007846340787,15.1220826246223,-2.23338972613106,4.81754249436356,-13.3901824055597,20.9554344206046,7.38133057371984,20.2525709325305,18.5151915999732,-8.00470028048321,-8.56580168021754,-0.100386902541372,8.11085324739539,2.40544276409013,-5.6256240969,2.92243102266543,0.43766513436718,6.87634201466996,14.0022480333417,-4.71054432406364,-8.9533122223186,13.7255241890423,3.53898966711319,-6.03864256336463,-11.3279368921434,-4.38901503812546,6.58190792615874,3.38596742468571,6.10076905077739,8.64122884876744,3.42903437024835,-1.71190881906739,4.24843608487921,-1.22986505358821
MMRF_1436,13.025384048254,-10.6252979450616,19.4894919370603,-2.76301583533599,6.58810578443674,-9.7183097289067,0.237011086619718,11.900685421988,0.726581011214538,9.71732663092563,-0.678943289693513,0.45284923506181,-8.3684847672089,-1.83138798169103,8.62359948400984,-0.0195764276142663,-0.713835041303004,7.84921425403012,-0.169884132196968,-4.77410730486373,-0.118327808580084,5.51057388218899,8.37073975076009,8.359580436212,2.0775159393876,-0.193176165095861,-1.16947867802016,7.028160717758,1.81289310662272,-5.32117395033598,-4.84090827852659,4.81945568484629,-1.53255885616252,7.51598737269153,-0.267063584813031,1.91326278700282,2.85341565044197,1.42216593604579,-1.84608184344692,4.09447698889928
MMRF_2595,23.3027642178987,30.5017637929827,9.2683375442638,12.9547222320865,-16.8767046557225,0.787137971012077,11.5845669890263,-0.942443479345653,8.88238939602009,-14.1535861416044,-4.37007648665855,-3.87590137563137,-7.66893456247777,10.9576592209041,14.2808936757282,-12.7230809555944,0.703419899140617,-15.4094390444375,-0.866263781914812,0.508188846934629,7.91896447044193,10.9394148351146,3.38375088208241,-14.0926034197715,-7.63381642092423,-27.1750180452243,0.921801329201697,4.85538691934937,-13.2563899546015,8.20716800166594,0.259294380990066,1.2085160772563,-7.35313520357431,-5.11409862372335,-7.72346400760452,-7.29735980509864,-14.3529867405812,5.81349838064856,8.75256489278314,1.5453482781032
MMRF_2769,-37.5074175751774,-39.0761069560944,-15.2244349521412,5.40364505320914,-25.076414011414,-8.95904468958485,1.34396559297193,-10.1981496843028,11.3682575509045,-3.22384832306336,2.50654233829544,15.1857240663262,-10.1924259560849,4.8424328601357,4.26441575737691,13.0699563888598,10.7146301643951,-7.74437079236372,4.63528405545412,0.00730023703838574,2.1916835699634,-5.45195352208745,13.2608769083379,-1.71025690505225,11.681295444909,0.158792704052729,0.892470843014506,2.52468648028676,-5.05920783793285,-3.90534929710687,0.943370810076213,-4.19442527448698,-3.81950234154729,-0.876272669821961,-2.11949332608737,3.3884576500371,-4.41691034908408,8.02897651736629,8.08948875954766,-4.79924656684559
MMRF_2772,-38.142786010978,-31.3015170341698,-8.94241148215323,3.77165998736904,-14.4698517165654,-11.5852257108189,-6.88447558270536,-2.16547184971767,15.2327375127573,7.69789563373836,-2.41309345436106,9.078817784244,-13.4846979564929,2.7033533872017,-0.0789500289010768,8.86265910947153,3.512510052351,0.624484768682375,9.37637574218112,4.68807213233378,-3.80626141255328,-1.95288182021602,1.28417440171107,-1.45409722710379,4.41615789148465,1.66800960466516,2.4323927294769,-4.83951478055808,-3.99997003138552,1.52009964931029,5.38133661019829,2.72681587295809,2.58471513191765,-2.85976647950937,-7.28757482046417,4.56893598192333,3.14941712563927,6.832181407049,-1.13650523176548,1.20069018351724
MMRF_2697,-30.008699454913,-34.4714476597048,-0.265132153484581,3.10149287405064,0.640382154892793,-5.91894213059983,25.9309953325851,4.6476863808905,7.07157266359438,20.3727492646456,-3.21698532250457,-5.2681298981321,-1.87701634227635,1.97996536635383,-12.594908420395,12.9816835487177,-8.00017092412349,4.24106213997826,2.57579815994207,-4.81736667479143,-1.59858030794882,6.96855715911102,3.13287446231425,-2.78295571967251,-7.43889397308297,-1.02373599876142,-0.704923209291031,3.11544646212567,-6.23082049933067,-4.96581557529391,0.694387797810029,-2.01675526968589,-0.992947492090757,1.70118993934723,1.41235772239963,-3.61249136713563,-1.18455397208634,-0.0257064132003794,6.44317696480082,-4.11658046447825
MMRF_1965,11.1914759522012,11.6272906584581,-14.1591727577096,-11.3609835839947,-11.6194282360362,38.7525074953455,-15.5192818021282,27.2755565511296,5.02015706166084,10.0890755195187,13.7769657994337,9.37070385422235,-4.51201583226935,-3.82996115788558,12.8350535342319,-1.90973697034742,-0.871120595811047,-2.99088592058613,7.14005743535344,-4.55376850275921,3.21603583473419,2.78725371144118,-1.97431018080993,5.39219376919445,3.56033874329917,1.27718330301134,2.60667739443346,-4.06912689737514,-4.50255471774429,6.66714095787089,5.06906081399544,-2.65257966576275,6.7037848723164,-4.85154769232205,1.28036562213434,-9.08395444367305,5.42288932868323,-0.533376311995429,-5.73449021174561,4.7838912147067
MMRF_2449,-8.44661307598646,14.3505205836664,-6.4739229048727,-4.53746502654858,19.7883736928887,-21.0151902199594,9.73839524488933,10.9047660195365,12.2941090975171,-6.71263393498479,2.56273143366342,8.78913277643389,18.4317139363251,-4.37826763561662,5.59557917876734,0.317187006046822,-3.91309824339937,3.26802342195655,-1.70490762666463,-13.9580277811881,11.5108329323405,0.538323611912274,9.55409349107122,5.70981442301512,-6.29890241519363,-6.72473937838576,1.68032709577113,2.4584872703262,-5.05061451753177,2.45862827552985,6.89241378039856,-0.66263915641509,-4.03736614148771,0.842187343819978,3.37600014711966,-1.29564825752773,-3.99897176916763,0.0309653868439682,-4.38500676954828,-6.79869240214903
MMRF_2229,-14.1182916218597,19.6224065802019,-2.41408950634091,4.74022138446991,22.658671287032,-21.7545683697884,-4.41563783567557,8.87653414454591,-9.63240100394741,-14.2423988468874,16.0494281054898,2.56706529858836,1.87845852513292,-13.1574556444642,-13.3494869072711,3.18133781860249,8.55347766542892,10.4772599580563,7.87515408085417,-3.88249929384298,-4.26508043002762,-0.14692242990868,1.10025780877263,0.528048543771348,-6.18697507334979,-4.29933393167265,0.118466840319381,6.54644615947482,-5.5991080273239,-1.55114679314417,8.26167950714796,-1.1778024977063,-1.4103482276051,1.1856194742244,-2.83664793183978,-4.11890364543564,-10.4631791202716,-4.91123123322901,-2.27548442589972,3.98644833852763
MMRF_1659,22.7790974062526,-6.43435824541681,0.590500981920703,10.2362469301071,5.82033666144719,13.7739985313109,-1.93558819955089,-9.43686198883939,-8.71219336720992,9.59751683235765,0.815062798841184,-2.84333077170579,12.0980036515869,4.41118140572952,8.64545383599172,2.72428135568873,3.91902280227035,-5.34213095776791,-2.27076144286507,12.1874757444109,4.79355574333538,1.96077312053842,-2.5010593285798,3.66404723170499,-2.40656528492465,6.00878171927321,-0.188908176865871,-3.61910138855242,-3.22348944583004,2.28935675897949,-3.5431458147572,-6.78290428847354,5.2702600834683,-3.51749622840794,-0.732014000580935,1.12980834317092,-3.91758895102877,0.722785094604909,-2.98367945547907,-1.16770825454081
MMRF_2739,-6.23828399527214,17.4540644816756,-22.2911217485569,-0.65653138455628,-20.509177336551,38.9816248053251,-11.5490277293192,31.1566296893895,-12.9396017135368,7.90191410311031,-5.30240846899765,16.7790407356383,6.95478371791835,15.1316459635341,-0.546935934449348,2.67435706581821,3.03418489599456,4.40479408070458,12.3836105317608,13.7821364669935,6.40252580261316,9.8969275039725,1.86129651560417,-17.2391641058014,-1.23041226817688,-9.81836319319699,-2.14048800684466,9.07326499469813,-9.93006757576555,-12.2301233817159,15.9315727249646,4.06488610192991,5.63388297017532,-6.80312344236798,-8.23012570290347,5.4462918932218,2.5798949788814,-9.64270420572496,0.242468937335851,-2.16017588807369
MMRF_1867,21.1518681553366,-5.3054076977311,8.33010737239133,6.69637305931948,6.47699576483967,-0.481920749984009,-5.54809729884709,-1.08637725697019,0.027333962265375,3.29304952628923,-2.28177844853092,6.58296029481315,-5.68255814506217,-11.019388352051,5.15594474720288,2.54645487091909,2.73497972988571,17.0061713355969,-3.28747796592841,-9.31701133324712,10.6648920944782,0.689951012067994,-5.38078861771799,-0.310026252172288,-0.522617087091212,5.70848938638291,-10.310532314408,5.99740226533153,-0.291243717469169,4.32823969590692,-0.116715142842575,-7.09748929354932,5.07691982581927,-3.15280235498939,1.68267889559472,2.04906588808815,11.8200708393702,2.02957047630016,2.09720812034869,3.25734747168728
MMRF_1478,-4.61753207904681,-39.2317813653613,-23.0012687687405,-4.66810216528533,-22.0067030037372,-8.29247522085388,-12.221253014228,-2.94895186315945,-6.56564508955211,1.16067780261632,-8.1754347220095,-5.10710125086903,11.1570215528917,-7.12837409541036,2.34435547265934,-11.061046313319,0.727703981284701,-11.9998248085729,-5.05044175826192,-10.4229834333001,1.38276600465287,-3.51109860009507,-9.09823394476548,1.59349078876051,1.04503179387837,-3.50609369149474,11.1369974073594,11.6539598029211,-2.80020956041697,9.76048388693541,6.09034174530736,10.3740690184632,0.582961319259943,-7.44071207018183,1.87639286816872,4.49069778320386,6.67642113503734,0.174798121805379,-0.718475363159045,-1.36418106596476
MMRF_1947,16.5676288520841,2.25516761523451,-3.06508161490158,0.380514338523029,-4.19243089629847,5.45897732565028,-1.35341311534088,-16.0174705691211,6.09672240572545,2.1271811482727,10.0474919385066,-11.1010988125001,3.99008640172842,-11.9589312949614,4.79729291625864,0.0823160845993395,-2.27341988326886,6.23980025427656,6.31705667202528,11.7246180461084,7.2805848341062,3.02667081054249,3.94262388119287,6.41169376369889,10.0019474293553,4.1246872362003,5.35041173173992,-4.15563927827509,2.49773002969324,-0.706514057377647,3.83830574189171,-0.362780703738851,5.48005521686377,2.39884364600733,4.22270855085397,-7.68938299663626,-3.46554942984373,4.2556444942477,0.147097972322907,2.10274380473274
MMRF_2149,18.4428707074187,-14.6408080386026,18.2781767244195,4.42486943124528,1.45485257888735,-1.60404304569243,12.176392368184,15.4463143930313,-12.9885240733633,-3.38031675722096,-3.10819427896634,-1.90046317596719,-0.415962849317593,-1.57811863827746,-8.58380557202658,0.192007303848038,-5.49446160970962,-2.55432080738584,4.13844242413383,1.53783539211097,-1.13816378868628,4.0039231603296,-6.65854396706982,0.481991138601543,7.4560050184454,6.14341172169561,4.75092100220091,-5.49869587381857,5.8634461567256,-4.63608727321919,-1.55947424609763,9.19141454113904,-2.08114086257433,0.902648349262166,5.82959662644645,5.88516735528859,5.25619292653211,2.49381919380721,6.44505975486951,-1.40662261574417
MMRF_2068,-7.68624251389098,10.9913535470336,15.9556753245652,9.40399284895856,2.62959068233993,14.3927770674369,-6.07975973326642,-23.9276678161987,-2.43148058677076,-1.25592548030653,9.61710310943316,-16.9934186456606,-7.07430355415001,-14.8868911233578,-0.338980808342139,-15.6497347875315,23.0575426627531,1.13023585428399,21.4867757810156,10.0309248873519,-2.02448757335519,13.1640189562507,-10.1098588289798,-0.752419005457713,-10.007858778595,-3.32936752938639,6.84603750873804,6.52435575312799,-3.26890994550795,5.01814582427543,5.98862675351022,4.70066817030203,-5.29344486302207,5.56002516588591,4.17417487460574,-1.18520510619528,-1.29791956833743,-2.17811133911643,-4.14520193898295,-0.673799566368439
MMRF_1540,3.23229066645058,15.652776859435,-9.90232214296427,-11.0765589494505,-3.49336653961136,-15.9745550644673,-29.0662981521904,4.68786211013062,3.97366487000803,7.28710696325136,-24.231217173,-12.5118517414169,-3.6683500870967,-1.41599390809985,8.22882785444233,7.3220095576402,1.20561391481873,5.86572949944967,-6.91521177997615,0.0973715442089781,2.8615997030491,-3.20489508454736,-4.04256475829682,-5.43901189360647,4.6458714819993,3.58227606940309,3.43957594442513,-5.70034303249485,3.37586185051755,2.10593737460301,-2.86179005577417,4.06916618578469,-1.00580963672797,5.48151783383354,-1.58077755717227,-2.71150286939925,-4.35274064474312,0.817949583095249,-2.10225720949347,3.38201175289478
MMRF_2224,-17.9883237823843,5.45224720964856,11.5269874260983,1.32262812363982,0.119471292035159,5.39628393789219,-21.0496996589238,-5.92846673490124,2.75904097255196,-18.9262323975722,-2.3636840578953,14.0124468572288,-23.1155264515337,-0.370309579323739,-0.829817688287679,-7.303136590452,-10.7583290290885,-2.54645778098305,4.30305473315958,1.44024307003781,4.02101940392539,15.2739124709523,-7.71624053237697,8.38369091217018,-3.80722048396512,2.54075448839047,4.977343211113,-2.64904426542309,4.31787097726002,-2.59987025393232,1.38348772151337,-15.4283346819432,0.593323311194501,-1.63431889844811,3.17820805446246,5.2211505187792,-4.43863821534673,-3.67617978851944,-4.82938823406465,-4.96586605745836
MMRF_2187,30.6465154420707,-5.87697218357861,19.8614891131502,11.0622399871869,0.0950361926205901,1.33061356540704,-13.832715452692,4.40474281344117,-11.6222130434497,-1.19292574850855,14.7441297173631,11.7077431450395,4.68013025877427,10.0115711793797,-15.7032848317319,-5.47296316808855,9.192114102313,0.817041393695036,13.0681286260574,4.04140053112448,1.5620120138873,3.06949843623865,-1.90096712341936,5.41832443620586,-3.75416403084232,-2.14999221040712,-0.149904430010617,-0.0306406417751236,1.05080056566662,-1.48998488684219,2.87100626559547,9.63012562971185,2.07343215516838,0.263332857533983,-2.03599321898155,-5.85019572688386,-6.3763540662273,-0.466974725290674,4.34072382674442,2.44023593094225
MMRF_2126,12.2518079013362,5.65162275001052,20.2281993891183,7.38468070842644,-1.85945663696468,2.95147531879487,19.3793258388177,12.543719705279,-12.284509399922,-2.2519369693075,-12.4469254652932,-3.95668123240441,-10.3342300027553,-15.7326837530055,10.6983487694532,-4.1780830074916,9.83598201050337,16.6360801776882,9.7685469188198,-4.2449003632463,6.03196035834267,2.19931317610179,-3.41834352840001,-5.51388407739332,-0.295926501518415,-0.324510690570497,-2.32878919621442,-1.17185229011495,2.87346435573122,5.87818407975593,-1.00596043416578,-9.582874294538,1.75553448284783,4.4409192038493,-0.661287314945746,-0.827616990827015,10.5067203085466,3.33486417261302,7.0411739301859,3.36073544267871
MMRF_2059,6.11939163593334,4.59705639774331,7.31973314987232,-4.5219537087231,-11.0577770456434,7.9149244626841,-4.47412683897949,-13.1104778841908,13.9492802435977,3.83274602899812,5.87526711480236,9.59896261077876,3.67461231361212,13.1918216630748,-9.16339321400758,-5.78224531308485,0.944224015649788,7.20695521633652,12.7546056554217,-8.25786956673093,21.0828627337316,-6.54480484400064,-7.38180868237619,3.10350921036662,-5.54800068839454,8.81849599168566,-1.17994699563838,-1.42617462791716,1.54943220850088,12.5799304486205,-9.64680406340148,-4.80891767530491,-0.666604614744121,-4.75421908548807,12.6005569620688,1.14659592240452,3.32949042899403,8.25950065695846,4.91966138484242,1.42280623556038
MMRF_1759,4.58610168453149,-16.0672362493789,15.8075585795858,-9.58990352167471,1.59559110207289,-14.5570303517267,9.28537909482625,13.8033604201804,-10.7784988402361,8.03875134038423,0.585018583267543,-7.40349148280717,1.0841472753572,-6.1672440534844,1.50400677452534,8.87023458901431,-0.161428725285198,7.62469678115498,7.17237723554245,7.52105475034623,-6.21782489300247,-7.15802146642052,2.48815591764788,9.2755819864512,7.94299089315365,2.17519995866731,-2.25019091886286,0.331054414074628,2.40519584755473,-6.09382963854401,-5.37955323768277,1.80215943770512,5.45892660109311,-0.606262733155684,2.33328470013709,-6.37878781648262,0.479087455434365,-6.78561446007299,-7.16884192591919,-1.16300830944088
MMRF_2639,-31.5415168511467,-28.6767110400587,-7.1713052539441,-7.04556896221367,-21.3371790410258,-18.4397479202787,-3.28954486740091,1.67949663424829,4.94206626645388,-1.72296914923478,-2.48149946024371,-0.7761281926329,0.684073891908528,4.13494497869575,-3.38013240087299,6.1223102126819,-3.98872869546477,2.34387613062121,3.55543467276389,4.53938192646764,-6.19251129346423,3.90944301215351,-4.6769189055767,3.72240968369258,-4.87401712656083,-3.91151888656569,1.36189073189332,6.40015115595468,1.24406649739443,6.67944931289354,4.2579421788899,-2.2667696441557,7.80257409751696,4.76002413224227,-5.63880095187256,5.44399502966268,5.71838342160486,1.54039736970074,4.1150885140056,2.76269787139909
MMRF_1886,3.23637326147875,32.9513460678505,-3.7490908837094,16.9049533509537,-51.5915661826225,-7.62906858708839,17.5300884834266,3.99551189763635,11.1941828464196,5.50235757105102,5.4863675171822,-7.96661958623071,0.678363528738702,7.40397883215082,9.03007100134533,2.73885929939377,-11.5042586209127,11.5208188091892,10.8299744135679,-2.05000711932537,-5.99258483211436,5.23870348544264,12.3544905291108,-6.84797618355636,-8.90497991399359,19.3563619464754,6.25927180980141,1.40844212177104,14.8119048702278,19.1557328027074,11.5139417963548,13.3595636657688,-1.06225049546428,15.7954044298407,3.57962288702251,-3.01133715880768,-0.819210492700502,5.99908480377353,-0.79780982885176,21.1916107609416
MMRF_2300,-41.8665901833914,31.0996958646352,-3.41235764562915,1.98444435113277,-16.0235274356599,31.1991802924388,-19.6515996181118,2.10143481364122,-26.2482408942689,-7.46020535625692,14.4788784451665,-0.46170280564945,10.3016837925625,19.2976354254864,3.32445863994978,-13.8854824265943,-13.758834803043,6.14831037305814,-6.92575970780577,-16.096101744687,11.4602132802573,-4.05696504557856,19.7657467971545,-0.458614787245476,-6.06067930820765,-1.50328805071384,8.45146725716571,-1.63332640988989,-1.0031905829117,8.26334213716837,-3.91085957141201,-10.3757658931177,3.01085697663156,2.70992062813141,7.98772817005799,-2.42306328510575,6.03365403505541,-6.65249765925656,-9.30796292248592,6.19911066425222
MMRF_2635,-99.6947902411369,-12.4214514703778,15.695299080576,29.6844015129181,10.8641946865685,2.05486852596117,-9.42248029503038,-8.62298654317383,-7.28334382212029,-0.630138070962431,-8.3180317882406,20.3992096734717,-29.485411021368,16.4114054779809,8.06151718977685,16.9203456574525,37.3703691596509,-35.5128499143998,10.350078462344,-6.68607435740099,-2.61819829640145,-12.9725347872726,7.41706575734141,-1.20661928713935,20.6184037032655,9.16580126839374,-6.115431780522,5.00518492578136,-4.09345215823353,1.93652160924444,5.7203631121004,-4.16684615167539,-12.3164367549485,1.38061201652527,5.82684263726617,-2.17657997744839,-1.36186978373681,0.692535221009427,-1.6785605874189,0.25503508605813
MMRF_2522,17.9956802794776,26.1298516803961,6.69824306644488,17.1371242931551,-10.6200177493826,-1.32375446378463,4.05275152196492,1.76545339450353,10.2496522097472,-25.007855655206,-3.46213863961977,-6.04137000316439,-6.49102347174031,-13.2844000339805,18.6480773007582,3.08471245526967,6.89107593435617,15.9132384243362,-7.51054326565622,-6.70630049908912,-2.01075418833504,6.0556491042181,-15.0808635309691,16.9663768532375,-0.743729974929046,-0.170751255305827,-4.6862650704946,-2.81728396245372,2.2086324507753,4.64353241556934,5.48035251775384,-10.0857262839252,-3.78603760253896,-16.8988269882613,11.0938884026454,-8.02656247194355,0.686763905983221,0.0912491362982176,-2.67844179072949,2.65863160280337
MMRF_2820,-19.1057746834595,-42.0320178633071,-20.9814089991432,40.3063716516305,-3.03942079937348,-0.753779768970502,2.33775304625736,3.67572266694993,11.3876289692664,-8.03763013463023,-2.44588690520926,7.16109532055107,0.709626133987291,14.095908806293,8.38810827019614,5.30458920809233,9.68410224973947,-6.96385671404216,-10.8665134588247,-10.5137603748847,3.0594234658713,4.51445380480672,10.4766908728335,5.93880837330173,2.73019980116793,2.05727283981253,-2.40218077895575,2.26995390317712,1.4078308753259,3.61969247959253,0.859978905689628,-1.5578178326943,2.85509791385697,-1.71751779676769,0.587799113033351,-15.3217676902419,-7.18535691185046,-0.135105716549122,4.69712243761192,3.87920227020108
MMRF_2729,-14.8568914396341,-13.3974994110093,-10.6351070079725,-7.7308775767246,-31.2952769289396,-23.3976150743272,3.34389864033719,-1.66441016910469,4.61961870495146,1.37807641693697,4.47271674208112,20.7196323163413,0.181232793464512,6.43748114275914,11.1611660687365,16.1755713152432,2.67971807844237,-10.764079500625,-5.54296336028903,1.72832081914297,0.0917650606994085,7.1665667820073,-24.5292118206207,-2.85012884546672,-12.9232644713062,-2.40408797198525,-6.77489711765287,-11.8753942767468,3.00334601221521,-18.9774791519789,0.62050031423444,8.99643992947712,16.1278825192474,2.22098503102363,7.06629563343599,1.43101872910212,11.4449320908714,-1.5671137087593,-5.30784256906507,4.66312720009395
MMRF_1981,24.2824258755542,0.986847690963697,25.8474875090559,14.9859036505615,-13.785421559586,6.8347095746855,23.5498678514902,9.80558456946242,-16.58020223557,21.6738378806306,-8.72784675169248,2.3816010784981,4.82434395282574,-20.3510315549762,0.180844426957734,-8.84066177572834,18.9663292122534,-3.49315619772996,9.05172640848602,-0.379279445922318,10.1001559359971,10.8612997691568,-2.1132769203791,-3.79521973185278,6.73894672254831,-10.9485049499006,7.57962569226285,-18.0733499465366,2.73920263060484,8.10587461979182,-1.18720066983056,-17.8708082920716,-10.6373278625194,14.8158765306152,-10.8877202075012,5.74221708348993,0.790271234085436,4.19130064361738,-6.8307318761469,10.3410446815247
MMRF_1393,-11.5746131551161,-37.3976667937423,1.00082488812253,12.2947866553014,2.86810361534593,4.92131208265329,1.68743780315588,7.13972622478397,10.8239819812447,16.6477603632913,-3.24028519132776,9.03736884119842,4.68236110255753,0.228635172199003,13.389520892679,-5.26972755677326,-0.144259049401434,12.7412683748295,1.27040693161785,7.31986128936343,-3.54189408280216,-3.0557152850363,14.047193254981,4.75538823549281,-6.60160665679166,-1.31257857432489,3.57636588715386,1.36579663967669,2.95676557386637,-14.4510101199199,-6.7867770345953,-4.87834546963732,-8.38187867442044,3.36055885355235,0.128624939602125,7.88302597005801,-3.5502504431899,5.24896420695891,1.01777444051836,-2.02403030425292
MMRF_2328,-26.0719495782063,32.7449468278886,2.38585401646125,25.0104873577082,21.3034012839881,-9.97223067249192,-18.2035248410554,10.0201631109222,-2.24540980896571,-18.539200620654,9.91103856498445,11.5898797071698,11.5810409647951,-18.1460855419961,-2.59133913228078,-7.82909189326163,6.54572197879071,9.66111281594778,6.87629740299454,7.94821213169726,-2.6313127255184,-1.46913124231794,-7.67381466833906,-2.37361421427762,4.85237314785172,-5.79168199044031,6.95156214572839,6.55298912768002,1.93554358477145,-2.45019404763235,-2.07381504016045,3.88517831818899,-2.90798580435296,-4.33950193971234,-10.6014561217629,1.84073058233454,-2.36971261451145,7.1516822411943,-2.32664206522647,-8.19678935388759
MMRF_1705,-9.88444532994308,-3.30801326085993,8.90544270352627,-13.071675571232,3.58871928905952,3.53368165398318,-19.8085056138557,-8.91202893080341,2.5555758956278,-8.17127676287119,-4.8756480161925,14.1988677252979,-24.1512819418554,0.603123006133141,-2.58044026112449,-4.4625224354993,-4.14289898968344,11.2503021259259,9.94940875647663,1.61546506086413,-13.6964517107067,9.81203292459971,3.57407194468222,1.15130887831865,-2.80946509690596,0.445181034659984,-2.62392402615502,0.989668085612832,2.3776927586172,-7.38495709154449,5.492976853236,-13.0569012316724,3.6869435735683,-1.54295038386339,2.89757979579637,2.56361227950525,4.20109101947869,0.757284378465051,-0.390595848959139,-3.44505355076644
MMRF_1201,-5.33757186984831,-33.1592929330377,-21.55288713004,5.96444692383677,-24.8345189213724,0.167378527208543,-6.34401316757355,-2.53756351580183,6.79940216131268,-4.1705642282632,-2.38007869276038,10.2009719860194,14.0026295395916,-7.70198102630547,16.6380479003999,-14.9784782109331,17.7467070121352,0.542723410166845,-8.18791821921161,-4.35766857829806,-0.48389406344444,-11.200969701148,-4.4506881761248,-1.91355483330351,4.54310093206954,-2.93507383626716,-6.94620617907507,-5.90128160638582,3.83274981093049,3.08481607460903,2.80366231188935,-8.22181794066877,-0.465131797390552,-5.13485174683337,-11.611597901248,-2.31156547876773,-1.33703285055159,-1.96692216246281,-0.676496652871909,-1.19020235434177
MMRF_2016,-23.7415368405738,-23.1588656286114,7.03249867162613,23.0340378708871,-0.618668290579437,1.95626170851864,-4.44123188714801,5.23180768032151,-19.8401671479137,-5.38576918876678,-3.14454836984632,-11.8902452015488,6.59151795160491,-8.77360745762467,4.72219632194009,-7.98880509356773,-1.94021507621884,6.35672489757153,0.636586641563992,0.424175919125126,1.62797409254805,6.65890197791276,7.33570368915504,5.69962481599194,-11.631739740691,-9.6440436532878,13.7942384239903,-10.8815639727801,2.8385010096927,-10.8376443585034,-3.93839598297643,-2.11765932302788,-8.79128980353637,2.11569626357278,0.334924696466414,-7.27611390454599,1.2155862140973,14.4034117011365,0.653168739905246,-14.5581070072845
MMRF_2807,-49.7217217465735,3.9287734634126,-8.89871897823337,11.3152943550727,-33.6768072495154,-4.32793645086338,-2.95741899644646,-3.2568163905504,-24.8934680463899,-0.729064208951044,10.7806220309442,-7.7488178592361,8.03586992880832,-1.76373138467305,-8.61991435357158,-11.806201929003,-13.6049437814856,14.8427622473141,-6.92868244972839,7.78810242314516,0.279403300262809,9.66944499865133,-4.73219940583495,-2.22452455725841,8.46194596915028,4.72124045449027,0.00702224869914451,-8.5248830159129,-3.06867497197518,-6.01823279657666,-8.75049524003132,-7.37609201896957,0.26181848988798,-2.53261628435953,-2.56507671275039,0.096956536669965,-16.131049103489,15.9028781967204,-3.65269486510893,-13.5812466450905
MMRF_1257,27.9466909293876,3.26172052415328,6.23608560357766,9.95514409770324,5.42357186508584,-1.02885499003005,-19.3591907936672,-6.55394022263284,0.602549627201654,7.80196612229164,5.65491018001552,-3.76445283406977,0.770603389307997,-4.78188884439498,-1.39592681511847,7.6086931282676,-2.49931016320106,-0.732238764886674,-6.38570850270149,1.57949769156959,8.51648569872939,5.42462745193695,2.06594453937173,-2.03678576639466,-0.759258454767081,-1.42275510191294,-2.3770014144314,7.44577667912708,5.34370544589452,0.244760928098811,-10.8505712956418,-5.41395036127653,0.357637679633317,0.905784448246051,-4.74953462620556,0.149448045701853,-2.48468795544917,4.57224451067779,3.26151264715889,-0.94058909173693
MMRF_1596,21.0722051737928,-6.44699998686344,17.1052742122114,0.413157980413788,2.21622774133603,4.43122580549722,8.44208633127023,21.1838708668307,-22.1484315042787,-7.13049617324008,-11.6810581683496,-0.180134227950701,1.25371976416819,4.15878767136175,-0.339384192252406,-1.68872963114285,1.33611061647602,-3.00513728693235,-1.60205104627244,2.62753977614555,2.2303464531742,3.78557222064149,6.76238700037789,6.96096522523873,12.0368169854106,11.9803401091786,0.65238613145639,5.57986062110864,6.45202301112898,-0.958148774774382,-5.15203346932943,1.2323998100422,7.06892141502178,-1.29786978705381,4.330387991302,7.09526566464854,-6.57842191703965,-4.75134473713435,4.13607995506608,3.39781508847997
MMRF_1318,6.16889166376828,15.8375726340707,-16.069880109402,0.813781580847642,27.4420832210798,-13.5850293704047,-14.3480603459428,7.81340153167424,6.03675469256213,-6.54855988839185,-6.25222871391795,0.116867525799884,6.54495220203772,-15.1773776662545,-0.924019652592791,7.95372185337268,8.52106541438716,6.16364755649713,-1.75190174166336,8.00443801589136,12.0710736583839,-2.2884146794385,0.41499700666061,-3.83628604879058,-6.89097161488048,3.15468626454078,-3.08751413897656,6.77717474167628,0.713565412542059,4.54379105174555,-2.51678483623441,0.878787205777069,-0.453062431766433,0.588496474467505,-1.95315495265876,-6.72673831752841,1.1090166200649,0.102262734434601,-1.82465168753743,-0.8642349375565
MMRF_2604,-18.6507822680121,-6.74285759304988,-40.5144545837648,17.044354772922,9.53844086788023,-21.6319278286089,10.9243391486355,17.6638582060237,6.79266297833831,-6.93953455217017,15.3938590946184,-15.2632600326431,-18.6773622551905,27.5180087105915,-25.9731934090601,-13.0823376151784,22.0036874512237,4.23415608847942,-8.70427897671911,7.80890005442418,-0.878149596195714,1.5587415445087,1.80582843565242,-4.42954236774903,6.70247072482029,-0.714802282780342,1.40066150204399,-1.63259073785861,5.41150821391376,-0.678709410526485,-1.1521690897206,6.85447861048776,6.86518690009162,6.58795241430047,-2.27047940009687,-2.6661834832977,-0.481546323700957,3.16657636895286,1.56870855365434,-1.89807473002275
MMRF_2699,-14.2432120528375,-26.6116416060946,2.20469788394078,0.558999266793758,-8.05519989764183,5.59429125439392,26.428218071714,1.75645589788119,-10.7261202009991,0.30944652225205,-9.51155187511116,-0.217684554191663,-4.67692419765079,-7.34390345938843,1.54992855163814,9.80831649234366,-11.4694091535819,-6.0391921492041,20.2713330588784,11.4050384787077,11.6359671514148,-1.15388641967944,4.99659785898616,6.26139672140766,-10.1651462712434,-0.354278885330392,3.28105221241312,1.79014707345585,3.18085119061802,7.35087923413704,1.74099901880903,-15.4041556113958,3.70811049047113,-6.9814098761515,-0.877406268067071,-0.356232025651798,-8.39262818910136,-4.96485937053714,-4.62994096512756,-0.516464935183563
MMRF_1787,21.5232730473626,8.72639797299162,-5.90257034663658,-6.32249273999879,-26.7769152043817,-3.60396518096447,-0.155918872121191,-15.7599302822624,5.64366658349517,15.062544416051,12.8362537624359,-4.38948480891615,-10.108070188967,-12.7628656920967,11.6938293286275,-17.7180649636132,2.56961794250151,-0.421654892946567,9.85576113426427,6.51860023496426,5.39318178916094,1.44480962282589,7.88252680338066,-3.90687242400425,1.35328759785636,4.60804867308051,-7.06996336562848,1.80639057008087,-0.680256375156389,11.2546243191691,10.9659000250726,1.13650738284932,1.63308764399451,3.4138995701548,4.78184413175337,-6.34817438980778,-10.3828932889017,7.78447493307217,0.27214979592427,2.44316507740625
MMRF_1931,-21.7184837478421,11.2321766396916,7.4447993281595,17.1325423550589,12.4233407497336,2.50512372320213,0.163010417466931,-26.9986384969656,-2.24192362285451,0.490070559033074,11.6376965919107,-9.77134795967709,-19.5236107627444,-4.96190083875606,7.87477254599024,19.0932932747402,11.4389497518712,-4.84487253950322,6.87435412725434,-2.6712480668165,11.8848222647082,5.75122441267735,-4.80214185261849,5.83845535959824,1.70478265675161,5.53118341131421,10.6495714945119,3.90890209214959,-7.70122043110914,-1.66165132774854,-10.8532414815795,2.63296166871721,0.0367819797255957,-0.119469856984926,0.570395650514587,-1.53935066336587,-6.5484580900126,2.84756289368958,-0.267140714245079,-7.28025428572095
MMRF_2106,5.4307873557969,8.18051258272065,-16.1238869744532,-4.75186875188721,0.511030536846511,28.6200430318369,-27.5295400097403,20.3755708338021,-3.97843049568396,4.0015810698548,3.55047336593282,11.9078120022551,14.289127583311,7.33838209906864,15.9178177624983,9.79363278768139,6.54163397670884,-4.6263970768343,1.49647265745356,-4.23025231102611,-1.04513117828004,-0.0947502934852951,7.66817046106168,8.02715519416287,-2.96607017178499,-0.99046152441177,8.76827087600678,-1.56478875561584,0.0746755323646076,1.95021170871067,2.85886338304962,1.66055589800219,3.18316766980186,-1.10700015943851,10.2584286071988,-8.83230727306537,2.02677894531806,-9.17823719653703,-4.54242434470209,-3.094047374141
MMRF_2746,-29.7220227981702,4.88538868048781,-31.4345219429025,11.8671097785996,9.05756933413367,-19.2372321001129,21.2187214766408,10.0338616858443,-16.7849853245596,-3.48499975507189,3.48718888185318,14.4633066988846,11.1575361932373,5.81307179728377,4.10807477828716,1.6552002741974,-12.849628782376,1.35093322244323,-5.72826826476038,-9.18637189195262,9.98492748518456,25.2061164154908,11.3716532218843,9.1961645668431,-3.70968272838726,-1.91813210712962,8.02738026346545,10.8262982102953,3.86312433514702,3.57639226768415,6.04812713462717,3.24816155203572,3.82094782855746,-10.3537908443816,0.228666151491128,8.622929186187,-5.90200362681598,-4.28303568366364,-0.359972869270289,6.74555169066026
MMRF_1932,7.60609238592107,0.0955755970021737,16.5606160934723,-3.34297533264625,1.72782687898964,3.00932417416335,13.2026956870418,7.8093267065361,-15.4011301504853,-5.75974181192023,-2.332728071852,3.75065849952148,12.5704182682785,7.81539538074438,-9.64240358876882,10.1566776713131,-3.0845411670441,2.85423579657858,-2.50360427554954,-0.23180518451792,-2.0128858494313,5.50705458408363,6.27868047129745,-0.799072637065983,5.33866396743785,0.576317319187421,8.03613809853114,6.71773701319699,-0.781112623614435,-2.4025510432555,2.82874707562839,-2.40557483511581,-4.38345630241388,4.43769389310711,3.81340622192258,-5.90667972575711,-9.47110802980916,4.77462696594,6.25510448143317,-3.51234312013089
MMRF_2549,27.658778056331,18.0723427314296,6.91493116177095,22.3432578492272,-2.16926239771643,0.192396434745314,5.80741383573302,-5.35214527117105,2.29065760463014,-12.993520496871,5.20405579061074,-8.91027126794583,6.34629825956978,2.20471188258254,5.20098606410829,9.05689343564684,-0.38910279146547,-5.65476614825263,-5.8814316223843,-3.37389742149841,-3.70797228845949,0.93916636914889,-0.968786862698679,-0.638683444004169,1.93853513352606,-12.8798728871418,-2.44218523052624,5.10205166647605,-1.22378778033752,-6.81325667268422,-0.273183509545168,-2.16369564057386,-3.37353222250124,2.8190922511359,-3.72930792868141,-3.57880608508993,3.41656814123302,0.927610013930728,0.907251175414436,4.04525163527403
MMRF_1308,-22.415055214078,13.7191838441501,21.607721892076,-22.4236886528579,0.612240331097699,-8.13827289289244,-4.83675291528214,3.31174293115395,38.4944374810784,7.53141861132476,-16.3469578413707,-12.2537262033371,10.1710555801034,8.08982709825403,5.48877200657506,-7.42689613800015,-9.38452680136616,1.09648964670135,0.464733543976485,-6.5577259408451,5.49797496359551,12.148925516031,-3.8153859998289,6.152933546114,1.84281622445696,5.77496283127462,-9.81871016983447,6.91770300828386,3.6694172509426,-4.0437207585185,-4.30930524762883,-5.58451944612873,-1.30214596739627,2.96294004633203,2.0531343632911,3.49698745664382,-4.7397096546377,4.09758031182168,-1.37475782121939,2.40648077639373
MMRF_2706,4.08754296079179,34.6305322484656,-35.7226078595256,5.86424734572526,9.63747539527318,-21.3209641191219,8.85985220694483,5.73551380135622,-7.98941023631116,4.82749121711092,0.0901752364054919,0.905407598843636,14.1272440859324,12.2619307504765,5.40946511334727,0.200427078017668,-6.63310650337984,-8.59612553430763,9.59689921598786,8.42321206932066,-2.72654286898239,16.1426667859743,-4.18672496850475,-8.08489265246159,11.2787923737513,7.19524380287476,-9.80687303122198,3.79605678775098,0.311446723657288,10.4892653203194,2.90932034922809,-0.197489337960844,9.75238590956022,1.81285419622706,0.698289849793091,3.50767140133797,3.15278969123396,8.58118400859508,5.04868400245686,-1.6409911871453
MMRF_2642,-16.2938356860287,-15.3474886878531,-12.3436651181623,36.7581318637251,-10.7402957172442,2.04864785078859,13.7931080514266,16.8065628151801,6.78658168425727,-11.2841602966796,-15.205103021506,-6.68216676876849,-10.9461213857746,6.71687363958464,13.7385347378001,-4.3755435590098,12.0219773989097,8.40167705815512,-4.08134984010137,-4.98008596198491,-2.91459203445724,-6.65430258912814,-5.45440528916322,-6.22253985128293,12.4509526729392,1.70507139848119,1.55778439427134,2.80520405636605,-1.75896279694336,12.7310276154804,-8.35766233438994,-3.41896102492785,0.584909048569497,-9.20788026731919,7.56683800266478,-8.06197579947006,2.38098646320772,-11.0484820302357,6.2937406659854,3.51965578341547
MMRF_2433,-0.51211529328199,8.02461574031837,12.0019845456475,-26.2322730984827,-13.6847315027338,-14.8466801830943,-21.1637236230893,-5.47247707138606,7.96160275738739,0.281328010587395,-13.117969111806,-10.8232634444806,10.8614270091891,10.8447104437783,-3.26739846620758,-2.26364769085529,3.66745306045163,-7.00050447800933,0.632632315598747,-6.29374629277337,-4.08361968263241,0.548984603851542,0.505698018717659,2.8869217835842,-0.0614985503841491,-1.15692029895472,4.21274425297912,-3.77747711422712,-1.25159813893598,2.64029821269574,-5.35055920297329,2.77635463946329,6.53610930940645,0.33089776540824,-4.65711993933501,-0.807399754854042,-5.37364857780687,7.22712043774448,6.09018503920132,0.557008261180789
MMRF_1295,0.660184544287499,22.3503109872081,-11.5195083017477,2.01764302436228,9.14140473787191,-17.4317971543511,4.59618811842962,5.73396265626996,18.1126024660932,-12.7631420074071,8.58846656995043,19.5498493513,-3.0624830272129,0.693867779589155,-4.02206283626245,-2.82892647368868,-16.0041020366611,11.2717862552823,11.3500309428432,-6.74366210210644,-2.25623049057598,-9.7262216735637,3.18365460867057,-1.56951355902374,4.3337557521899,-3.5853551147991,9.21526923801497,-2.64336616341349,1.93499327126605,-1.98932925592427,-7.64755601402784,-7.99887755618361,0.347974688878714,3.45927456860387,-1.77516082878739,0.267163558181288,-0.584833345001573,-0.378450340787498,7.51022049804468,-2.34040913071002
MMRF_1671,13.0839192869475,-2.86609241613141,3.6516777823496,-20.6747740235716,-32.2518163763271,-12.1046691358491,-1.30742867123839,-13.4482892761393,3.65836295443015,-15.5925970899903,12.4233665178425,9.56372359856562,13.5936752527979,-4.18661645721871,11.235827238296,0.387943491832926,5.67658900285328,0.717398206973641,3.46289431942432,-0.890394826146102,-0.840439637544165,-1.82120884256423,10.986510060163,1.59124248022682,-2.53557305698409,-2.24234007748605,4.47237913732383,0.902891320172088,2.43488159237869,-2.26380989417056,0.530019201604447,-0.243611310124117,-3.6692214681786,-3.34745948681595,-5.10544309248404,2.60066600726158,-4.95798801285765,-2.91456561378756,10.7791254848029,5.70063699896456
MMRF_1917,-26.1985349898887,-4.76410660338165,-11.8171503834515,-25.7826659897328,1.82612398418275,31.8110235899755,-6.51098615196694,16.8527301979085,26.3994799324129,8.1446924872302,7.32218229301324,-5.30725281819555,-1.70272262491641,-8.83356065795872,0.177086398822676,14.5614141490022,-2.78173663503367,-13.6098332865534,4.8157843021862,2.28721668448738,-5.1396406717147,1.95338441128161,2.3998810334911,1.7753984765245,4.44199590338352,2.25048852299525,-0.521344458582181,-2.91517582298226,0.0287357354455917,0.756916654199927,0.738403851510792,-2.79711318934274,-0.76409216374753,2.18368746507216,-0.0512238793984655,-6.07630108876942,12.1104816312618,-0.80168884745018,-0.658586655516203,-0.82508798361175
MMRF_2636,-9.93229951642247,-9.05998128358035,-39.106522029383,30.3588200235438,17.1479860344179,-14.6825418478295,-6.96896997023312,7.06573514600175,15.8126395142757,-6.89772214240993,-6.5970056336487,0.934968457966083,6.34845025200436,-9.76619653310561,-5.24890993017918,-2.46013830030131,13.1176946469532,-11.839656673107,-0.36828339178305,-18.478095572635,-3.78618219236043,-5.26257771251748,-0.77372682447687,3.31501855268664,14.5547715890515,-6.5577023373508,-0.381751623191742,-8.15663135072421,2.11379859522752,3.16741819064522,-7.88869872349855,-13.7753974456319,4.66001791257986,9.39019949706843,-4.91441198988335,0.162208268797649,0.709454261115649,-4.97605586633988,-6.37461873351898,0.313145617351971
MMRF_2719,-0.442573765979551,37.9471384013443,-32.2872144041573,28.9583162647393,-10.5195161801537,-24.3621870485179,18.6074270490472,2.75326834016548,-1.45415784628926,13.2507070355871,11.9467665530221,-13.9259792961493,-1.0564298278786,-11.4764212104517,12.5689438367785,-7.58283741680439,-8.88589619732897,-16.4338298165013,25.0727941343817,-11.8260689756667,-12.0655271092543,-2.76787772011349,1.06640959078675,-2.66901614648765,-14.00793308868,5.38188998711281,-1.89335832843651,-9.83123558578387,-8.04442497471428,10.3225294075333,-10.8119268090198,7.22023100382562,2.41820697568476,-0.897361680143756,4.37406399019763,6.2635085016495,-8.65299740049122,10.1645805497712,2.68979094756562,-9.63575819278305
MMRF_1148,25.0856847029886,0.143717821085914,3.46294426336639,11.7758228531709,14.1953411306932,8.39017680082128,-11.3819247360061,-11.3116004795102,2.49965289744389,5.83278045345089,5.03931048021175,7.37589274506614,0.804145858524069,-4.32782512463269,5.53999641587515,3.96937405176152,5.62465259461502,8.63350984815473,-12.4112201693692,-2.93451532460018,10.5373742467095,10.4939917528483,6.37288887007263,-2.66187072196952,0.319816462811679,-4.92383351177201,1.31169757595635,-5.51853745574895,-4.98701063395021,-0.954002447933055,1.79523579563369,-4.30705782946286,-0.883526866813648,-0.539000608316052,-0.990034564659323,-1.29276122584745,0.395350899853215,4.79365847998283,2.60261178941351,-9.77680526531669
MMRF_2487,4.63096057304217,-2.42780368460082,16.8959057575622,4.94385832468923,9.64864315875834,-2.53022349503855,-4.16857817295628,-2.79231852380537,15.1829414953522,-12.1720191051804,10.1441648800994,-1.29383263842052,4.02095274552002,-2.24060917798055,-0.0957336215471466,11.4696679776043,-10.2921371079551,8.56924739873352,-7.80214633976811,7.37857103609696,-0.99770758041954,-2.6712061296629,0.0570395673568566,-8.57431621134984,-3.65180873430652,2.64728028099399,-5.01507010296129,6.61459569859857,4.84471850557478,0.0512625068553815,1.66490132230607,-3.38192656969159,-2.94561103139537,1.8705380676249,-3.24427167101346,3.00702672770021,0.321907068089132,0.325156813295563,2.87291472818837,-1.21475614440443
MMRF_1795,28.0367669736378,-18.2318949725442,8.8625344758195,-1.01896247793464,12.4541907654959,0.814854999568755,1.38306528087364,5.65563733889231,-5.84050594729725,17.9691944075654,8.14365849572328,11.1734542857397,-12.0822361791895,-3.1441475229861,10.9491677973844,-7.07365126165937,-4.38340757488441,7.49147412445371,-5.28130306510784,-2.47567317002057,-3.62488874824346,-18.5850971650381,0.56189581479398,-1.01555604786437,-0.27167780785578,-0.30462968382245,-6.24438654427346,-2.36360457824735,-7.8619609900957,-5.97700988315287,2.82490919097681,-0.940971309949234,-1.83635564852631,2.21080128463925,3.80534363928868,-1.6958262470619,1.72654926625855,-1.13035994155948,-2.58974367396238,-5.67060777744523
MMRF_1433,7.91225779080542,25.6210313173628,-36.775008433661,-12.4325277592267,26.2530773180533,-11.4289838648005,11.2002399708897,-16.3123410211147,-4.86436038223963,23.2717607015076,18.951295481432,-4.44939233605092,-0.0613163403928645,8.9456880361204,8.20618738715992,-6.99991385608396,4.78838738695045,-10.8025967229648,-1.01306694554637,8.51907092001222,-9.24108084264364,-2.21536484745073,2.33423653200028,11.6273031431435,6.5961849563017,2.78146073267713,-2.5265149979904,6.17575685425267,4.36922358837738,-4.11237326103277,-14.8101283878376,4.97071279429509,-0.157322032089984,10.1556130434808,-2.35955996556809,7.25365381066059,1.01245563633341,5.69020102760135,3.10244303599527,8.9352228208898
MMRF_2637,-13.1620113795783,-21.9482965546484,-34.415020506334,12.4886804468245,-11.6551343184362,26.9801387103074,-4.36929174400716,-0.795554879915906,12.1690543840709,-9.06044575518651,9.57129302155963,-18.2270313049642,-0.309970021573675,0.605853933114876,-11.677709664116,2.4811321540594,8.17237346013897,-1.14607702992829,-4.15125724807199,-3.61692418589434,3.4876869663725,-5.76656188941197,0.477723505832056,-3.33371498001951,9.09577602297485,3.70732697845595,-0.385981820552159,-2.2297596165929,-3.7816392148721,2.02802005956165,-7.30950872112651,-1.89307857745517,-0.300235768395181,10.7544305038908,-0.688927794786529,-1.5889554624864,-3.81137017373787,1.58076140378744,-5.73047059329393,-0.789997361745064
MMRF_1678,-23.4532036910916,10.7179159366158,2.07137700017835,18.9147478560987,12.9265869722337,11.7637462699446,-13.8366497804855,-27.40362484727,-3.54690322117159,4.10088480243374,2.00262276256308,-10.3161424157602,-4.71908830218347,-12.337901795274,11.7343886996461,-0.444696451502152,2.92689781647142,11.5951600906775,3.48646270481393,11.4188397261603,-2.4127049760211,4.91877245345239,8.02098496172905,-0.546271208563374,8.01214893732032,-2.46320762294599,9.27928717655805,-3.29521300129746,-1.28874654059544,-13.5581273160501,-2.15233299982601,-3.52650804997209,2.06784601714511,-8.55124282470663,5.29202158754913,-4.58816634411546,0.149905444885539,0.08672245663245,3.05519496645229,0.64735496856089
MMRF_2728,-14.4730884329704,-2.50303894340784,12.9430415997781,20.9998121084208,6.10570909076428,-2.04756630203803,-9.52761628263318,-12.7621568636679,-7.54493352063016,20.3076052941987,21.8726909709768,-11.8833872980793,-0.178432579014922,0.767394877422186,1.75664953559118,11.2739728261385,-3.77614153388796,5.3658561151388,-5.14924963477257,-4.65335300053965,-8.05035208633791,9.7799395567855,-10.0803170104637,6.165377793281,-0.466090974552079,0.442561360074887,3.44061550816756,3.91576923865066,-3.10876758384521,-6.57625051288045,2.48856628770846,-7.81552404496406,12.6112570265735,-7.0050750903676,5.37486431525761,0.419551015118951,0.0462165676255529,-15.8215027397897,-0.697838955280712,-3.44478563294201
MMRF_2548,-10.5420206663764,19.1870471336554,-23.8178771468673,-9.82853244764755,23.094846191238,22.4615469042585,27.567311505261,-20.2266002782478,-18.4155658245719,2.74333929990278,-34.7681827625073,21.2907815010111,0.114957939872808,19.2524359097906,0.936260867056062,11.4563583486478,27.747748088693,40.299133562172,-19.4838909700987,-13.8337773654851,-1.40022556198192,-0.934901572449714,1.15639680559903,6.92737228585515,-12.1062778356159,0.282157441834885,-8.14293602929388,-15.8296240719893,9.49418700785148,10.6179051231363,-2.40004737921446,20.1141971841277,-7.02869140751421,14.468835436743,-20.8610134551769,13.2591011480037,10.3634962046247,-7.36841791758789,-4.98261655435403,-26.7436735554721
MMRF_1766,32.5191366595041,14.7351774459223,19.2633791522562,16.7367795021349,-13.420679575039,-14.4938381753053,6.15860584553737,20.4757412117971,-12.6985045898872,-9.70537783408304,0.405628385155497,-13.5172303807102,-7.45047953727167,0.26814470142795,20.9413053200077,2.80926914660447,4.93284176662374,-6.82776064881131,-1.04219695590157,-17.7584348631894,1.35139561109333,4.1719430814586,-1.42053839084068,9.69199449137105,6.05069749268211,-12.2970257980672,2.73779577716738,-5.00165288952488,3.35487812762401,-1.68668892946304,4.07572319021718,-1.52308523740169,0.884127727151525,4.29358364580528,-1.97639257220126,-6.45016876640133,7.82877533159423,3.87906550378396,9.06833920372646,2.05398262153681
MMRF_1605,14.1405756858533,4.23791978320054,-9.28511233290794,-13.3209117006784,20.1929515828189,11.2469294359335,9.20342851873381,-21.0573252749831,9.19210180627111,-10.0327268528437,-6.91107599213063,6.47197629699045,-9.7807763310345,-11.3563311938373,-8.4813771922023,-4.24931976051669,-5.8401476133475,-7.97162650576662,-4.07765397622064,-8.83418767176153,0.844830750862915,-5.33989511447711,1.27003429635388,-4.88037580829277,6.41577282433043,1.94479196819898,8.25263785664885,-1.23177943917717,2.94812887223499,-8.21036269965306,0.225708314526001,4.87726746407022,-0.27659142777782,2.90762549462011,3.41851631375338,-9.06643153529185,3.0731289738696,-0.0319305867409271,-7.51713274444939,-4.81419504430962
MMRF_1845,0.887520216208275,19.6372520153238,-20.7452119395477,-9.93853144970048,20.2834233969561,4.22565677088375,-2.98078177857604,8.19187050500491,4.7921831472906,-5.86201661510919,6.62901393426923,13.4911012246295,-6.23049871051481,-7.03051109121304,3.91084827772909,-5.80224377098616,0.990670543025917,5.30483290135178,5.24734201902867,5.10595946443504,0.815028112475616,3.32941255304961,-7.82865219904,-7.75634696480913,-4.48057990368575,10.3477547842683,-3.66361223436034,-1.17148777906089,-5.68895085453289,8.42491154264244,-3.28404699787671,-12.6399681992537,1.74241088942532,-5.31155262130739,-3.68157827116643,11.092390456193,-0.0399706573736908,0.971281618127927,-2.89225233516816,-2.34801815080532
MMRF_1501,20.126354215376,-0.542448964899086,6.04999346865346,31.2270023513318,-4.40894162373854,3.89422462297639,1.14450227036476,1.6859871852225,7.91186200962097,1.03593811155971,3.20963945544369,1.9184274846407,12.3871590601742,-16.2290672662059,-16.7746683994575,8.22950472153756,-3.17989492967168,-10.008165083263,-1.40252292104563,2.9244491547942,7.63213716733245,-3.38329493112755,-15.7503155580754,-12.5768434960204,5.33217188131399,0.753718577961834,5.08598719620667,-0.192954974505784,10.9980681146545,-6.26280973191588,-1.79341239462984,1.35016444565014,-9.36859830412833,-5.31655203229303,-3.31754524350664,14.0684857715224,2.7744426907696,0.85339494376237,-8.31050297825349,2.61641610661488
MMRF_2711,8.70825835498364,-2.87691968560456,-1.83858736484873,21.1902650359678,-9.88129821717442,-4.88632826692355,4.46153713015122,1.80555065786774,14.5968720719192,-9.40080643661922,20.9294129421615,-29.7972600248411,-2.99961105095495,3.29269363708763,-1.70952588661843,9.73449105427454,-1.11128805460177,4.40208128416336,-8.46102399145653,12.0091603158647,15.0056509856945,-6.6311651903609,-3.67783339956509,6.09643826671098,0.142997594432741,3.47925722223089,-0.348657428366623,-13.7496308041237,-15.0956359209896,-5.3172511052175,-3.5780472014668,5.3054072711641,-1.68043449603284,-2.03677703957913,-0.551153909662361,6.57066960820006,-5.0169685066942,4.64677619094179,-5.72455924406194,-12.5707251717486
MMRF_2831,-29.576881313204,-29.7055711609935,-6.67483059804291,4.80602767290182,3.06077977170034,1.80997845173798,5.53343471009866,-7.54732382385625,16.2811515698409,7.31628997762876,-11.9450598908974,9.78317830977182,-8.07729105465914,4.86474069388831,-3.90993211012413,17.9838779355841,8.78525031251123,1.86752853190065,9.13354784570204,-2.2583294244947,7.55616417515727,6.48289495093047,12.8238722642695,2.22836568271152,-8.53111194712952,2.13554574678567,-3.98113092320285,-1.3369543267452,1.04284247329055,-1.98266397568902,2.25549919075406,-2.75756593146238,1.6142373605632,2.62385737957896,-0.841954288240091,11.2414042638481,5.41456556386951,4.76673490851836,-3.84920873807199,0.00381103018813896
MMRF_2851,-31.8719147118655,-34.9034315530577,-20.6970428587161,-0.60680879330362,-17.2057155454745,-6.63165432340617,-2.09757879846473,-6.08041104420851,14.5689440180062,-14.9956412137192,-9.00062692544421,-7.71449779910318,-1.40971663076563,1.06059511668201,0.585985196717957,-3.98072928698055,13.4277736152784,-6.31813130943435,-7.87744501501686,-10.008874570275,-1.94254086667977,-12.1495820793256,-1.15101963507539,-7.03718720575805,13.8982730854189,4.87639735428931,-5.74122372458233,0.539698345060459,-7.0698780570832,-2.75151201126824,-3.63480090404018,-5.84226914034407,-7.72188711599943,-1.75224603814714,2.08280794998654,3.82943901412897,-0.911053593534274,1.07229292206635,-6.78984136106179,-3.1475071230788
MMRF_1593,21.1919654849708,-8.84235903101173,19.5947027064454,-2.27114639451079,13.1385939967445,5.28683866917457,-4.93377394772899,3.19180609663826,0.0597320973317008,-3.90797302679165,-2.21505567235668,10.8155355056149,-2.17383428549189,1.52644479435756,-8.02484464328849,-3.6645066595683,-3.86878023464458,-0.896574801475549,0.795824392113333,-1.30548078711198,4.908937116603,-10.6160491036826,2.6270426382222,-3.73561666192724,-0.0397615202622101,0.986622958628526,-3.04578482029813,1.09636284101249,2.20991186358936,3.66692635456288,3.84029785381472,3.28023735122583,1.20099227636228,6.88114070668047,2.99296204158125,2.35483585467714,-0.0787361913001739,-0.328620986902383,1.48626373179455,-0.669548714454133
MMRF_1335,5.36724052232872,7.73416754085832,-6.87580993077362,-8.54545238640082,-0.112666113675667,-12.2000984218403,-38.9720859301359,6.77705589059718,-17.7484281204708,9.37943206898951,-29.1756714973469,0.260645785930405,3.42002921363595,15.0098302427949,2.47520804135223,10.7696903020797,-4.23319459822339,0.530560298899248,-6.09486070641492,4.4562984607108,1.81084753059623,-3.32606973211698,-1.41019682547432,-10.0119682442788,-3.5795242331324,-2.11895575493494,0.0430796375421077,5.73020958974239,5.68280168540314,-1.55496657753413,0.855062642638866,1.4704593409074,-0.459566371342022,9.48385482169206,-8.03384359359791,2.57338713128947,-10.7702702434079,-5.24110298483539,-0.322584106400956,5.71246644297134
MMRF_1320,29.0592275797217,21.499021493355,2.00669642371549,22.4430275446357,-15.9535725496355,7.85896554046517,-10.7768787172897,-10.0803870422534,-4.78036730681394,18.4005801286247,5.40930060787588,3.19015172185869,12.4789659467261,3.28300201628509,-3.98144970447248,-0.872102498309955,-2.32455956903134,-1.75343460246478,9.18144217149691,4.71854467523224,11.0751622194761,5.74153068683549,5.24134327407887,-6.25654612204214,6.63815219322335,5.6373269120121,-7.17422806074003,20.9801241485559,2.21119918397426,-2.13189685742291,-0.469958746827999,1.53035215750478,2.27618987044207,10.9360085734394,-5.27290760231474,2.7590194116052,2.80818087766153,6.40955922720388,-3.05376463447262,1.93486439797143
MMRF_2050,-0.707560411399864,-28.9860277329967,-9.21147080785773,28.7439237188846,6.02867942875128,-3.10977892698017,-10.8214379626355,3.11502491061509,-0.274327510201111,1.46271773619244,4.61242682408156,-5.95390000271593,1.16970973023277,0.733153764553397,0.665795987587199,0.398192995204959,12.6667950089196,13.8667142018479,2.82105585893895,5.6116231681947,-5.11976162769717,6.39989523362726,2.0571705705349,3.25839417533005,-4.18510021701048,-3.25980060385713,5.18336993351419,-0.108288291118141,1.27102856047691,-6.8077917668982,1.53435926634947,1.23635285570236,5.5686262098273,-1.80024987090035,-0.901655392925524,-10.5477809913256,3.64555693578969,0.932765852307131,3.70786748473693,-4.4108468285306
MMRF_2696,11.9628576918579,-16.6857918611235,11.2610403912388,2.57911412660788,6.2889494467398,-3.56316326165783,11.0519351693326,18.7105619059934,-2.58805644865906,-10.7056600560834,-5.43608658660413,2.34754409830259,-14.3592009257828,-0.753414665726499,2.89767340029075,2.68650767610563,-7.81446569914953,3.4885598331031,-2.52581389382711,7.59302081649012,0.330147070055353,0.871860319203343,-0.198746222378397,-5.70443687675761,-2.30609363437895,5.98350672701657,-0.259894705789249,-7.23711412777975,-5.78647668894962,-1.51003207567568,-4.86716238692838,7.86349893583753,-0.572287452942193,-1.43330348052213,-3.54004301040218,1.3087740606339,1.25597439140358,1.08243593321037,-6.31209398301028,-2.88292462101427
MMRF_2115,-9.22794202238147,-26.1842882414734,-0.894409816443584,8.14008170692016,-4.10719946970568,11.5676066639067,16.2138175750855,17.4412179075533,1.77228054352881,-6.48328907598964,-14.7343576951251,-0.148905349746779,-2.33035085646705,2.07273453610127,-1.66999208722598,-9.8968953408443,-6.96461090397642,8.2784486337558,-1.10512279325986,14.150441900244,2.16181007526558,-6.81201864085406,-2.62375481395453,-2.18095492159764,7.73260639014088,10.2483139562044,3.57416125382366,-10.8681622683839,-5.17699249190857,-2.0969300228755,-7.93393182961435,6.41432908468239,-6.11256032098648,-16.1160333863077,1.98209551701341,7.14286959612353,-2.44134228429923,7.62470429984787,-6.37551427723014,12.6073114716237
